digraph Tree {
node [shape=box, style="filled", color="black", fontname="helvetica"] ;
edge [fontname="helvetica"] ;
0 [label="Tumor_Growth_Rate <= 0.802\ngini = 0.5\nsamples = 15000\nvalue = [7461.0, 7539.0]", fillcolor="#fdfeff"] ;
1 [label="Age <= 30.5\ngini = 0.499\nsamples = 3612\nvalue = [1875, 1737]", fillcolor="#fdf6f0"] ;
0 -> 1 [labeldistance=2.5, labelangle=45, headlabel="True"] ;
2 [label="Tumor_Size <= 1.108\ngini = 0.489\nsamples = 678\nvalue = [390, 288]", fillcolor="#f8decb"] ;
1 -> 2 ;
3 [label="Survival_Rate <= 44.744\ngini = 0.389\nsamples = 53\nvalue = [39, 14]", fillcolor="#eeae80"] ;
2 -> 3 ;
4 [label="gini = 0.0\nsamples = 3\nvalue = [0, 3]", fillcolor="#399de5"] ;
3 -> 4 ;
5 [label="Symptom_2_1 <= 0.5\ngini = 0.343\nsamples = 50\nvalue = [39, 11]", fillcolor="#eca571"] ;
3 -> 5 ;
6 [label="Tumor_Growth_Rate <= 0.397\ngini = 0.472\nsamples = 21\nvalue = [13, 8]", fillcolor="#f5cfb3"] ;
5 -> 6 ;
7 [label="Surgery_Performed_1 <= 0.5\ngini = 0.486\nsamples = 12\nvalue = [5, 7]", fillcolor="#c6e3f8"] ;
6 -> 7 ;
8 [label="gini = 0.0\nsamples = 4\nvalue = [0, 4]", fillcolor="#399de5"] ;
7 -> 8 ;
9 [label="Symptom_1_2 <= 0.5\ngini = 0.469\nsamples = 8\nvalue = [5, 3]", fillcolor="#f5cdb0"] ;
7 -> 9 ;
10 [label="gini = 0.0\nsamples = 4\nvalue = [4, 0]", fillcolor="#e58139"] ;
9 -> 10 ;
11 [label="Stage_1 <= 0.5\ngini = 0.375\nsamples = 4\nvalue = [1, 3]", fillcolor="#7bbeee"] ;
9 -> 11 ;
12 [label="gini = 0.0\nsamples = 1\nvalue = [1, 0]", fillcolor="#e58139"] ;
11 -> 12 ;
13 [label="gini = 0.0\nsamples = 3\nvalue = [0, 3]", fillcolor="#399de5"] ;
11 -> 13 ;
14 [label="Histology_0 <= 0.5\ngini = 0.198\nsamples = 9\nvalue = [8, 1]", fillcolor="#e89152"] ;
6 -> 14 ;
15 [label="gini = 0.0\nsamples = 8\nvalue = [8, 0]", fillcolor="#e58139"] ;
14 -> 15 ;
16 [label="gini = 0.0\nsamples = 1\nvalue = [0, 1]", fillcolor="#399de5"] ;
14 -> 16 ;
17 [label="Tumor_Growth_Rate <= 0.742\ngini = 0.185\nsamples = 29\nvalue = [26, 3]", fillcolor="#e89050"] ;
5 -> 17 ;
18 [label="Tumor_Growth_Rate <= 0.206\ngini = 0.137\nsamples = 27\nvalue = [25, 2]", fillcolor="#e78b49"] ;
17 -> 18 ;
19 [label="Tumor_Growth_Rate <= 0.176\ngini = 0.408\nsamples = 7\nvalue = [5, 2]", fillcolor="#efb388"] ;
18 -> 19 ;
20 [label="gini = 0.0\nsamples = 5\nvalue = [5, 0]", fillcolor="#e58139"] ;
19 -> 20 ;
21 [label="gini = 0.0\nsamples = 2\nvalue = [0, 2]", fillcolor="#399de5"] ;
19 -> 21 ;
22 [label="gini = 0.0\nsamples = 20\nvalue = [20, 0]", fillcolor="#e58139"] ;
18 -> 22 ;
23 [label="Tumor_Size <= 0.876\ngini = 0.5\nsamples = 2\nvalue = [1, 1]", fillcolor="#ffffff"] ;
17 -> 23 ;
24 [label="gini = 0.0\nsamples = 1\nvalue = [1, 0]", fillcolor="#e58139"] ;
23 -> 24 ;
25 [label="gini = 0.0\nsamples = 1\nvalue = [0, 1]", fillcolor="#399de5"] ;
23 -> 25 ;
26 [label="Tumor_Growth_Rate <= 0.798\ngini = 0.492\nsamples = 625\nvalue = [351, 274]", fillcolor="#f9e3d4"] ;
2 -> 26 ;
27 [label="Tumor_Size <= 1.18\ngini = 0.494\nsamples = 618\nvalue = [344.0, 274.0]", fillcolor="#fae5d7"] ;
26 -> 27 ;
28 [label="gini = 0.0\nsamples = 4\nvalue = [0, 4]", fillcolor="#399de5"] ;
27 -> 28 ;
29 [label="Tumor_Size <= 1.298\ngini = 0.493\nsamples = 614\nvalue = [344, 270]", fillcolor="#f9e4d4"] ;
27 -> 29 ;
30 [label="Tumor_Growth_Rate <= 0.121\ngini = 0.198\nsamples = 9\nvalue = [8, 1]", fillcolor="#e89152"] ;
29 -> 30 ;
31 [label="gini = 0.0\nsamples = 1\nvalue = [0, 1]", fillcolor="#399de5"] ;
30 -> 31 ;
32 [label="gini = 0.0\nsamples = 8\nvalue = [8, 0]", fillcolor="#e58139"] ;
30 -> 32 ;
33 [label="Tumor_Size <= 1.356\ngini = 0.494\nsamples = 605\nvalue = [336, 269]", fillcolor="#fae6d8"] ;
29 -> 33 ;
34 [label="gini = 0.0\nsamples = 3\nvalue = [0, 3]", fillcolor="#399de5"] ;
33 -> 34 ;
35 [label="Tumor_Size <= 9.101\ngini = 0.493\nsamples = 602\nvalue = [336, 266]", fillcolor="#fae5d6"] ;
33 -> 35 ;
36 [label="Tumor_Size <= 7.691\ngini = 0.49\nsamples = 537\nvalue = [307, 230]", fillcolor="#f8dfcd"] ;
35 -> 36 ;
37 [label="Tumor_Size <= 7.577\ngini = 0.496\nsamples = 426\nvalue = [233, 193]", fillcolor="#fbe9dd"] ;
36 -> 37 ;
38 [label="Age <= 28.5\ngini = 0.495\nsamples = 422\nvalue = [233, 189]", fillcolor="#fae7da"] ;
37 -> 38 ;
39 [label="Age <= 23.5\ngini = 0.499\nsamples = 342\nvalue = [180, 162]", fillcolor="#fcf2eb"] ;
38 -> 39 ;
40 [label="Tumor_Growth_Rate <= 0.162\ngini = 0.484\nsamples = 149\nvalue = [88, 61]", fillcolor="#f7d8c2"] ;
39 -> 40 ;
41 [label="Survival_Rate <= 43.193\ngini = 0.198\nsamples = 18\nvalue = [16, 2]", fillcolor="#e89152"] ;
40 -> 41 ;
42 [label="gini = 0.0\nsamples = 1\nvalue = [0, 1]", fillcolor="#399de5"] ;
41 -> 42 ;
43 [label="Tumor_Size <= 3.049\ngini = 0.111\nsamples = 17\nvalue = [16, 1]", fillcolor="#e78945"] ;
41 -> 43 ;
44 [label="Stage_1 <= 0.5\ngini = 0.444\nsamples = 3\nvalue = [2, 1]", fillcolor="#f2c09c"] ;
43 -> 44 ;
45 [label="gini = 0.0\nsamples = 1\nvalue = [0, 1]", fillcolor="#399de5"] ;
44 -> 45 ;
46 [label="gini = 0.0\nsamples = 2\nvalue = [2, 0]", fillcolor="#e58139"] ;
44 -> 46 ;
47 [label="gini = 0.0\nsamples = 14\nvalue = [14, 0]", fillcolor="#e58139"] ;
43 -> 47 ;
48 [label="Tumor_Size <= 3.624\ngini = 0.495\nsamples = 131\nvalue = [72, 59]", fillcolor="#fae8db"] ;
40 -> 48 ;
49 [label="Tumor_Growth_Rate <= 0.762\ngini = 0.496\nsamples = 53\nvalue = [24, 29]", fillcolor="#ddeefb"] ;
48 -> 49 ;
50 [label="Symptom_2_0 <= 0.5\ngini = 0.483\nsamples = 49\nvalue = [20, 29]", fillcolor="#c2e1f7"] ;
49 -> 50 ;
51 [label="Location_1 <= 0.5\ngini = 0.499\nsamples = 40\nvalue = [19, 21]", fillcolor="#ecf6fd"] ;
50 -> 51 ;
52 [label="Tumor_Size <= 1.678\ngini = 0.375\nsamples = 16\nvalue = [4, 12]", fillcolor="#7bbeee"] ;
51 -> 52 ;
53 [label="gini = 0.0\nsamples = 2\nvalue = [2, 0]", fillcolor="#e58139"] ;
52 -> 53 ;
54 [label="Survival_Rate <= 52.045\ngini = 0.245\nsamples = 14\nvalue = [2, 12]", fillcolor="#5aade9"] ;
52 -> 54 ;
55 [label="Stage_2 <= 0.5\ngini = 0.444\nsamples = 6\nvalue = [2, 4]", fillcolor="#9ccef2"] ;
54 -> 55 ;
56 [label="gini = 0.0\nsamples = 3\nvalue = [0, 3]", fillcolor="#399de5"] ;
55 -> 56 ;
57 [label="Stage_1 <= 0.5\ngini = 0.444\nsamples = 3\nvalue = [2, 1]", fillcolor="#f2c09c"] ;
55 -> 57 ;
58 [label="gini = 0.0\nsamples = 2\nvalue = [2, 0]", fillcolor="#e58139"] ;
57 -> 58 ;
59 [label="gini = 0.0\nsamples = 1\nvalue = [0, 1]", fillcolor="#399de5"] ;
57 -> 59 ;
60 [label="gini = 0.0\nsamples = 8\nvalue = [0, 8]", fillcolor="#399de5"] ;
54 -> 60 ;
61 [label="Tumor_Growth_Rate <= 0.525\ngini = 0.469\nsamples = 24\nvalue = [15, 9]", fillcolor="#f5cdb0"] ;
51 -> 61 ;
62 [label="Tumor_Growth_Rate <= 0.361\ngini = 0.49\nsamples = 14\nvalue = [6, 8]", fillcolor="#cee6f8"] ;
61 -> 62 ;
63 [label="MRI_Result_1 <= 0.5\ngini = 0.408\nsamples = 7\nvalue = [5, 2]", fillcolor="#efb388"] ;
62 -> 63 ;
64 [label="gini = 0.0\nsamples = 4\nvalue = [4, 0]", fillcolor="#e58139"] ;
63 -> 64 ;
65 [label="Tumor_Size <= 2.842\ngini = 0.444\nsamples = 3\nvalue = [1, 2]", fillcolor="#9ccef2"] ;
63 -> 65 ;
66 [label="gini = 0.0\nsamples = 2\nvalue = [0, 2]", fillcolor="#399de5"] ;
65 -> 66 ;
67 [label="gini = 0.0\nsamples = 1\nvalue = [1, 0]", fillcolor="#e58139"] ;
65 -> 67 ;
68 [label="Age <= 21.5\ngini = 0.245\nsamples = 7\nvalue = [1, 6]", fillcolor="#5aade9"] ;
62 -> 68 ;
69 [label="gini = 0.0\nsamples = 6\nvalue = [0, 6]", fillcolor="#399de5"] ;
68 -> 69 ;
70 [label="gini = 0.0\nsamples = 1\nvalue = [1, 0]", fillcolor="#e58139"] ;
68 -> 70 ;
71 [label="Tumor_Size <= 2.803\ngini = 0.18\nsamples = 10\nvalue = [9, 1]", fillcolor="#e88f4f"] ;
61 -> 71 ;
72 [label="gini = 0.0\nsamples = 8\nvalue = [8, 0]", fillcolor="#e58139"] ;
71 -> 72 ;
73 [label="Histology_0 <= 0.5\ngini = 0.5\nsamples = 2\nvalue = [1, 1]", fillcolor="#ffffff"] ;
71 -> 73 ;
74 [label="gini = 0.0\nsamples = 1\nvalue = [1, 0]", fillcolor="#e58139"] ;
73 -> 74 ;
75 [label="gini = 0.0\nsamples = 1\nvalue = [0, 1]", fillcolor="#399de5"] ;
73 -> 75 ;
76 [label="Stage_0 <= 0.5\ngini = 0.198\nsamples = 9\nvalue = [1, 8]", fillcolor="#52a9e8"] ;
50 -> 76 ;
77 [label="gini = 0.0\nsamples = 8\nvalue = [0, 8]", fillcolor="#399de5"] ;
76 -> 77 ;
78 [label="gini = 0.0\nsamples = 1\nvalue = [1, 0]", fillcolor="#e58139"] ;
76 -> 78 ;
79 [label="gini = 0.0\nsamples = 4\nvalue = [4, 0]", fillcolor="#e58139"] ;
49 -> 79 ;
80 [label="Tumor_Growth_Rate <= 0.403\ngini = 0.473\nsamples = 78\nvalue = [48, 30]", fillcolor="#f5d0b5"] ;
48 -> 80 ;
81 [label="Tumor_Growth_Rate <= 0.324\ngini = 0.355\nsamples = 26\nvalue = [20, 6]", fillcolor="#eda774"] ;
80 -> 81 ;
82 [label="Family_History_1 <= 0.5\ngini = 0.469\nsamples = 16\nvalue = [10, 6]", fillcolor="#f5cdb0"] ;
81 -> 82 ;
83 [label="Location_2 <= 0.5\ngini = 0.49\nsamples = 7\nvalue = [3, 4]", fillcolor="#cee6f8"] ;
82 -> 83 ;
84 [label="gini = 0.0\nsamples = 3\nvalue = [0, 3]", fillcolor="#399de5"] ;
83 -> 84 ;
85 [label="Symptom_2_0 <= 0.5\ngini = 0.375\nsamples = 4\nvalue = [3, 1]", fillcolor="#eeab7b"] ;
83 -> 85 ;
86 [label="gini = 0.0\nsamples = 3\nvalue = [3, 0]", fillcolor="#e58139"] ;
85 -> 86 ;
87 [label="gini = 0.0\nsamples = 1\nvalue = [0, 1]", fillcolor="#399de5"] ;
85 -> 87 ;
88 [label="Tumor_Size <= 6.787\ngini = 0.346\nsamples = 9\nvalue = [7, 2]", fillcolor="#eca572"] ;
82 -> 88 ;
89 [label="gini = 0.0\nsamples = 6\nvalue = [6, 0]", fillcolor="#e58139"] ;
88 -> 89 ;
90 [label="Radiation_Treatment_0 <= 0.5\ngini = 0.444\nsamples = 3\nvalue = [1, 2]", fillcolor="#9ccef2"] ;
88 -> 90 ;
91 [label="gini = 0.0\nsamples = 2\nvalue = [0, 2]", fillcolor="#399de5"] ;
90 -> 91 ;
92 [label="gini = 0.0\nsamples = 1\nvalue = [1, 0]", fillcolor="#e58139"] ;
90 -> 92 ;
93 [label="gini = 0.0\nsamples = 10\nvalue = [10, 0]", fillcolor="#e58139"] ;
81 -> 93 ;
94 [label="Symptom_3_0 <= 0.5\ngini = 0.497\nsamples = 52\nvalue = [28, 24]", fillcolor="#fbede3"] ;
80 -> 94 ;
95 [label="Tumor_Type_1 <= 0.5\ngini = 0.469\nsamples = 40\nvalue = [25, 15]", fillcolor="#f5cdb0"] ;
94 -> 95 ;
96 [label="Symptom_1_0 <= 0.5\ngini = 0.5\nsamples = 18\nvalue = [9, 9]", fillcolor="#ffffff"] ;
95 -> 96 ;
97 [label="Histology_2 <= 0.5\ngini = 0.48\nsamples = 15\nvalue = [6, 9]", fillcolor="#bddef6"] ;
96 -> 97 ;
98 [label="Stage_0 <= 0.5\ngini = 0.245\nsamples = 7\nvalue = [1, 6]", fillcolor="#5aade9"] ;
97 -> 98 ;
99 [label="gini = 0.0\nsamples = 6\nvalue = [0, 6]", fillcolor="#399de5"] ;
98 -> 99 ;
100 [label="gini = 0.0\nsamples = 1\nvalue = [1, 0]", fillcolor="#e58139"] ;
98 -> 100 ;
101 [label="Symptom_2_1 <= 0.5\ngini = 0.469\nsamples = 8\nvalue = [5, 3]", fillcolor="#f5cdb0"] ;
97 -> 101 ;
102 [label="Age <= 20.5\ngini = 0.375\nsamples = 4\nvalue = [1, 3]", fillcolor="#7bbeee"] ;
101 -> 102 ;
103 [label="gini = 0.0\nsamples = 1\nvalue = [1, 0]", fillcolor="#e58139"] ;
102 -> 103 ;
104 [label="gini = 0.0\nsamples = 3\nvalue = [0, 3]", fillcolor="#399de5"] ;
102 -> 104 ;
105 [label="gini = 0.0\nsamples = 4\nvalue = [4, 0]", fillcolor="#e58139"] ;
101 -> 105 ;
106 [label="gini = 0.0\nsamples = 3\nvalue = [3, 0]", fillcolor="#e58139"] ;
96 -> 106 ;
107 [label="Histology_1 <= 0.5\ngini = 0.397\nsamples = 22\nvalue = [16, 6]", fillcolor="#efb083"] ;
95 -> 107 ;
108 [label="Tumor_Growth_Rate <= 0.624\ngini = 0.494\nsamples = 9\nvalue = [4, 5]", fillcolor="#d7ebfa"] ;
107 -> 108 ;
109 [label="Tumor_Size <= 7.022\ngini = 0.32\nsamples = 5\nvalue = [4, 1]", fillcolor="#eca06a"] ;
108 -> 109 ;
110 [label="gini = 0.0\nsamples = 4\nvalue = [4, 0]", fillcolor="#e58139"] ;
109 -> 110 ;
111 [label="gini = 0.0\nsamples = 1\nvalue = [0, 1]", fillcolor="#399de5"] ;
109 -> 111 ;
112 [label="gini = 0.0\nsamples = 4\nvalue = [0, 4]", fillcolor="#399de5"] ;
108 -> 112 ;
113 [label="Survival_Rate <= 95.613\ngini = 0.142\nsamples = 13\nvalue = [12, 1]", fillcolor="#e78c49"] ;
107 -> 113 ;
114 [label="gini = 0.0\nsamples = 11\nvalue = [11, 0]", fillcolor="#e58139"] ;
113 -> 114 ;
115 [label="Tumor_Size <= 5.634\ngini = 0.5\nsamples = 2\nvalue = [1, 1]", fillcolor="#ffffff"] ;
113 -> 115 ;
116 [label="gini = 0.0\nsamples = 1\nvalue = [1, 0]", fillcolor="#e58139"] ;
115 -> 116 ;
117 [label="gini = 0.0\nsamples = 1\nvalue = [0, 1]", fillcolor="#399de5"] ;
115 -> 117 ;
118 [label="Stage_2 <= 0.5\ngini = 0.375\nsamples = 12\nvalue = [3, 9]", fillcolor="#7bbeee"] ;
94 -> 118 ;
119 [label="Chemotherapy_0 <= 0.5\ngini = 0.48\nsamples = 5\nvalue = [3, 2]", fillcolor="#f6d5bd"] ;
118 -> 119 ;
120 [label="gini = 0.0\nsamples = 2\nvalue = [2, 0]", fillcolor="#e58139"] ;
119 -> 120 ;
121 [label="Histology_2 <= 0.5\ngini = 0.444\nsamples = 3\nvalue = [1, 2]", fillcolor="#9ccef2"] ;
119 -> 121 ;
122 [label="gini = 0.0\nsamples = 1\nvalue = [1, 0]", fillcolor="#e58139"] ;
121 -> 122 ;
123 [label="gini = 0.0\nsamples = 2\nvalue = [0, 2]", fillcolor="#399de5"] ;
121 -> 123 ;
124 [label="gini = 0.0\nsamples = 7\nvalue = [0, 7]", fillcolor="#399de5"] ;
118 -> 124 ;
125 [label="Histology_2 <= 0.5\ngini = 0.499\nsamples = 193\nvalue = [92, 101]", fillcolor="#edf6fd"] ;
39 -> 125 ;
126 [label="Survival_Rate <= 96.7\ngini = 0.477\nsamples = 97\nvalue = [38.0, 59.0]", fillcolor="#b9dcf6"] ;
125 -> 126 ;
127 [label="Symptom_1_2 <= 0.5\ngini = 0.462\nsamples = 91\nvalue = [33.0, 58.0]", fillcolor="#aad5f4"] ;
126 -> 127 ;
128 [label="Stage_0 <= 0.5\ngini = 0.357\nsamples = 43\nvalue = [10, 33]", fillcolor="#75bbed"] ;
127 -> 128 ;
129 [label="Gender_1 <= 0.5\ngini = 0.191\nsamples = 28\nvalue = [3, 25]", fillcolor="#51a9e8"] ;
128 -> 129 ;
130 [label="gini = 0.0\nsamples = 16\nvalue = [0, 16]", fillcolor="#399de5"] ;
129 -> 130 ;
131 [label="Tumor_Size <= 5.521\ngini = 0.375\nsamples = 12\nvalue = [3, 9]", fillcolor="#7bbeee"] ;
129 -> 131 ;
132 [label="MRI_Result_1 <= 0.5\ngini = 0.5\nsamples = 6\nvalue = [3, 3]", fillcolor="#ffffff"] ;
131 -> 132 ;
133 [label="gini = 0.0\nsamples = 3\nvalue = [0, 3]", fillcolor="#399de5"] ;
132 -> 133 ;
134 [label="gini = 0.0\nsamples = 3\nvalue = [3, 0]", fillcolor="#e58139"] ;
132 -> 134 ;
135 [label="gini = 0.0\nsamples = 6\nvalue = [0, 6]", fillcolor="#399de5"] ;
131 -> 135 ;
136 [label="Symptom_2_2 <= 0.5\ngini = 0.498\nsamples = 15\nvalue = [7, 8]", fillcolor="#e6f3fc"] ;
128 -> 136 ;
137 [label="Tumor_Growth_Rate <= 0.481\ngini = 0.245\nsamples = 7\nvalue = [6, 1]", fillcolor="#e9965a"] ;
136 -> 137 ;
138 [label="gini = 0.0\nsamples = 5\nvalue = [5, 0]", fillcolor="#e58139"] ;
137 -> 138 ;
139 [label="Location_0 <= 0.5\ngini = 0.5\nsamples = 2\nvalue = [1, 1]", fillcolor="#ffffff"] ;
137 -> 139 ;
140 [label="gini = 0.0\nsamples = 1\nvalue = [0, 1]", fillcolor="#399de5"] ;
139 -> 140 ;
141 [label="gini = 0.0\nsamples = 1\nvalue = [1, 0]", fillcolor="#e58139"] ;
139 -> 141 ;
142 [label="Symptom_1_0 <= 0.5\ngini = 0.219\nsamples = 8\nvalue = [1, 7]", fillcolor="#55abe9"] ;
136 -> 142 ;
143 [label="Location_2 <= 0.5\ngini = 0.5\nsamples = 2\nvalue = [1, 1]", fillcolor="#ffffff"] ;
142 -> 143 ;
144 [label="gini = 0.0\nsamples = 1\nvalue = [0, 1]", fillcolor="#399de5"] ;
143 -> 144 ;
145 [label="gini = 0.0\nsamples = 1\nvalue = [1, 0]", fillcolor="#e58139"] ;
143 -> 145 ;
146 [label="gini = 0.0\nsamples = 6\nvalue = [0, 6]", fillcolor="#399de5"] ;
142 -> 146 ;
147 [label="Tumor_Size <= 4.403\ngini = 0.499\nsamples = 48\nvalue = [23, 25]", fillcolor="#eff7fd"] ;
127 -> 147 ;
148 [label="Tumor_Size <= 2.983\ngini = 0.415\nsamples = 17\nvalue = [12, 5]", fillcolor="#f0b58b"] ;
147 -> 148 ;
149 [label="Survival_Rate <= 78.462\ngini = 0.494\nsamples = 9\nvalue = [4, 5]", fillcolor="#d7ebfa"] ;
148 -> 149 ;
150 [label="Location_1 <= 0.5\ngini = 0.278\nsamples = 6\nvalue = [1, 5]", fillcolor="#61b1ea"] ;
149 -> 150 ;
151 [label="gini = 0.0\nsamples = 5\nvalue = [0, 5]", fillcolor="#399de5"] ;
150 -> 151 ;
152 [label="gini = 0.0\nsamples = 1\nvalue = [1, 0]", fillcolor="#e58139"] ;
150 -> 152 ;
153 [label="gini = 0.0\nsamples = 3\nvalue = [3, 0]", fillcolor="#e58139"] ;
149 -> 153 ;
154 [label="gini = 0.0\nsamples = 8\nvalue = [8, 0]", fillcolor="#e58139"] ;
148 -> 154 ;
155 [label="Tumor_Size <= 5.922\ngini = 0.458\nsamples = 31\nvalue = [11, 20]", fillcolor="#a6d3f3"] ;
147 -> 155 ;
156 [label="Tumor_Growth_Rate <= 0.195\ngini = 0.245\nsamples = 14\nvalue = [2, 12]", fillcolor="#5aade9"] ;
155 -> 156 ;
157 [label="gini = 0.0\nsamples = 1\nvalue = [1, 0]", fillcolor="#e58139"] ;
156 -> 157 ;
158 [label="Tumor_Size <= 4.757\ngini = 0.142\nsamples = 13\nvalue = [1, 12]", fillcolor="#49a5e7"] ;
156 -> 158 ;
159 [label="Gender_0 <= 0.5\ngini = 0.444\nsamples = 3\nvalue = [1, 2]", fillcolor="#9ccef2"] ;
158 -> 159 ;
160 [label="gini = 0.0\nsamples = 1\nvalue = [1, 0]", fillcolor="#e58139"] ;
159 -> 160 ;
161 [label="gini = 0.0\nsamples = 2\nvalue = [0, 2]", fillcolor="#399de5"] ;
159 -> 161 ;
162 [label="gini = 0.0\nsamples = 10\nvalue = [0, 10]", fillcolor="#399de5"] ;
158 -> 162 ;
163 [label="Tumor_Size <= 6.595\ngini = 0.498\nsamples = 17\nvalue = [9, 8]", fillcolor="#fcf1e9"] ;
155 -> 163 ;
164 [label="gini = 0.0\nsamples = 6\nvalue = [6, 0]", fillcolor="#e58139"] ;
163 -> 164 ;
165 [label="Location_1 <= 0.5\ngini = 0.397\nsamples = 11\nvalue = [3, 8]", fillcolor="#83c2ef"] ;
163 -> 165 ;
166 [label="gini = 0.0\nsamples = 5\nvalue = [0, 5]", fillcolor="#399de5"] ;
165 -> 166 ;
167 [label="Gender_0 <= 0.5\ngini = 0.5\nsamples = 6\nvalue = [3, 3]", fillcolor="#ffffff"] ;
165 -> 167 ;
168 [label="Location_2 <= 0.5\ngini = 0.375\nsamples = 4\nvalue = [3, 1]", fillcolor="#eeab7b"] ;
167 -> 168 ;
169 [label="gini = 0.0\nsamples = 3\nvalue = [3, 0]", fillcolor="#e58139"] ;
168 -> 169 ;
170 [label="gini = 0.0\nsamples = 1\nvalue = [0, 1]", fillcolor="#399de5"] ;
168 -> 170 ;
171 [label="gini = 0.0\nsamples = 2\nvalue = [0, 2]", fillcolor="#399de5"] ;
167 -> 171 ;
172 [label="Age <= 24.5\ngini = 0.278\nsamples = 6\nvalue = [5, 1]", fillcolor="#ea9a61"] ;
126 -> 172 ;
173 [label="gini = 0.0\nsamples = 1\nvalue = [0, 1]", fillcolor="#399de5"] ;
172 -> 173 ;
174 [label="gini = 0.0\nsamples = 5\nvalue = [5, 0]", fillcolor="#e58139"] ;
172 -> 174 ;
175 [label="Symptom_3_2 <= 0.5\ngini = 0.492\nsamples = 96\nvalue = [54, 42]", fillcolor="#f9e3d3"] ;
125 -> 175 ;
176 [label="MRI_Result_0 <= 0.5\ngini = 0.499\nsamples = 52\nvalue = [25.0, 27.0]", fillcolor="#f0f8fd"] ;
175 -> 176 ;
177 [label="Tumor_Size <= 4.399\ngini = 0.436\nsamples = 28\nvalue = [9, 19]", fillcolor="#97cbf1"] ;
176 -> 177 ;
178 [label="Tumor_Size <= 3.716\ngini = 0.497\nsamples = 13\nvalue = [7, 6]", fillcolor="#fbede3"] ;
177 -> 178 ;
179 [label="Tumor_Type_1 <= 0.5\ngini = 0.444\nsamples = 9\nvalue = [3, 6]", fillcolor="#9ccef2"] ;
178 -> 179 ;
180 [label="Histology_1 <= 0.5\ngini = 0.375\nsamples = 4\nvalue = [3, 1]", fillcolor="#eeab7b"] ;
179 -> 180 ;
181 [label="gini = 0.0\nsamples = 1\nvalue = [0, 1]", fillcolor="#399de5"] ;
180 -> 181 ;
182 [label="gini = 0.0\nsamples = 3\nvalue = [3, 0]", fillcolor="#e58139"] ;
180 -> 182 ;
183 [label="gini = 0.0\nsamples = 5\nvalue = [0, 5]", fillcolor="#399de5"] ;
179 -> 183 ;
184 [label="gini = 0.0\nsamples = 4\nvalue = [4, 0]", fillcolor="#e58139"] ;
178 -> 184 ;
185 [label="Tumor_Size <= 6.2\ngini = 0.231\nsamples = 15\nvalue = [2, 13]", fillcolor="#57ace9"] ;
177 -> 185 ;
186 [label="gini = 0.0\nsamples = 9\nvalue = [0, 9]", fillcolor="#399de5"] ;
185 -> 186 ;
187 [label="Tumor_Size <= 6.435\ngini = 0.444\nsamples = 6\nvalue = [2, 4]", fillcolor="#9ccef2"] ;
185 -> 187 ;
188 [label="gini = 0.0\nsamples = 2\nvalue = [2, 0]", fillcolor="#e58139"] ;
187 -> 188 ;
189 [label="gini = 0.0\nsamples = 4\nvalue = [0, 4]", fillcolor="#399de5"] ;
187 -> 189 ;
190 [label="Location_1 <= 0.5\ngini = 0.444\nsamples = 24\nvalue = [16, 8]", fillcolor="#f2c09c"] ;
176 -> 190 ;
191 [label="Tumor_Size <= 2.282\ngini = 0.5\nsamples = 16\nvalue = [8, 8]", fillcolor="#ffffff"] ;
190 -> 191 ;
192 [label="gini = 0.0\nsamples = 4\nvalue = [4, 0]", fillcolor="#e58139"] ;
191 -> 192 ;
193 [label="Gender_1 <= 0.5\ngini = 0.444\nsamples = 12\nvalue = [4, 8]", fillcolor="#9ccef2"] ;
191 -> 193 ;
194 [label="Symptom_1_2 <= 0.5\ngini = 0.48\nsamples = 5\nvalue = [3, 2]", fillcolor="#f6d5bd"] ;
193 -> 194 ;
195 [label="gini = 0.0\nsamples = 2\nvalue = [2, 0]", fillcolor="#e58139"] ;
194 -> 195 ;
196 [label="Tumor_Growth_Rate <= 0.367\ngini = 0.444\nsamples = 3\nvalue = [1, 2]", fillcolor="#9ccef2"] ;
194 -> 196 ;
197 [label="gini = 0.0\nsamples = 1\nvalue = [1, 0]", fillcolor="#e58139"] ;
196 -> 197 ;
198 [label="gini = 0.0\nsamples = 2\nvalue = [0, 2]", fillcolor="#399de5"] ;
196 -> 198 ;
199 [label="Tumor_Growth_Rate <= 0.424\ngini = 0.245\nsamples = 7\nvalue = [1, 6]", fillcolor="#5aade9"] ;
193 -> 199 ;
200 [label="Stage_2 <= 0.5\ngini = 0.5\nsamples = 2\nvalue = [1, 1]", fillcolor="#ffffff"] ;
199 -> 200 ;
201 [label="gini = 0.0\nsamples = 1\nvalue = [1, 0]", fillcolor="#e58139"] ;
200 -> 201 ;
202 [label="gini = 0.0\nsamples = 1\nvalue = [0, 1]", fillcolor="#399de5"] ;
200 -> 202 ;
203 [label="gini = 0.0\nsamples = 5\nvalue = [0, 5]", fillcolor="#399de5"] ;
199 -> 203 ;
204 [label="gini = 0.0\nsamples = 8\nvalue = [8, 0]", fillcolor="#e58139"] ;
190 -> 204 ;
205 [label="Tumor_Growth_Rate <= 0.681\ngini = 0.449\nsamples = 44\nvalue = [29.0, 15.0]", fillcolor="#f2c29f"] ;
175 -> 205 ;
206 [label="Symptom_2_2 <= 0.5\ngini = 0.493\nsamples = 34\nvalue = [19, 15]", fillcolor="#fae4d5"] ;
205 -> 206 ;
207 [label="Survival_Rate <= 69.81\ngini = 0.457\nsamples = 17\nvalue = [6, 11]", fillcolor="#a5d2f3"] ;
206 -> 207 ;
208 [label="Tumor_Size <= 5.833\ngini = 0.469\nsamples = 8\nvalue = [5, 3]", fillcolor="#f5cdb0"] ;
207 -> 208 ;
209 [label="gini = 0.0\nsamples = 4\nvalue = [4, 0]", fillcolor="#e58139"] ;
208 -> 209 ;
210 [label="Tumor_Size <= 6.861\ngini = 0.375\nsamples = 4\nvalue = [1, 3]", fillcolor="#7bbeee"] ;
208 -> 210 ;
211 [label="gini = 0.0\nsamples = 3\nvalue = [0, 3]", fillcolor="#399de5"] ;
210 -> 211 ;
212 [label="gini = 0.0\nsamples = 1\nvalue = [1, 0]", fillcolor="#e58139"] ;
210 -> 212 ;
213 [label="Tumor_Size <= 1.579\ngini = 0.198\nsamples = 9\nvalue = [1, 8]", fillcolor="#52a9e8"] ;
207 -> 213 ;
214 [label="gini = 0.0\nsamples = 1\nvalue = [1, 0]", fillcolor="#e58139"] ;
213 -> 214 ;
215 [label="gini = 0.0\nsamples = 8\nvalue = [0, 8]", fillcolor="#399de5"] ;
213 -> 215 ;
216 [label="Tumor_Growth_Rate <= 0.608\ngini = 0.36\nsamples = 17\nvalue = [13, 4]", fillcolor="#eda876"] ;
206 -> 216 ;
217 [label="Gender_0 <= 0.5\ngini = 0.133\nsamples = 14\nvalue = [13, 1]", fillcolor="#e78b48"] ;
216 -> 217 ;
218 [label="gini = 0.0\nsamples = 11\nvalue = [11, 0]", fillcolor="#e58139"] ;
217 -> 218 ;
219 [label="MRI_Result_1 <= 0.5\ngini = 0.444\nsamples = 3\nvalue = [2, 1]", fillcolor="#f2c09c"] ;
217 -> 219 ;
220 [label="gini = 0.0\nsamples = 1\nvalue = [0, 1]", fillcolor="#399de5"] ;
219 -> 220 ;
221 [label="gini = 0.0\nsamples = 2\nvalue = [2, 0]", fillcolor="#e58139"] ;
219 -> 221 ;
222 [label="gini = 0.0\nsamples = 3\nvalue = [0, 3]", fillcolor="#399de5"] ;
216 -> 222 ;
223 [label="gini = 0.0\nsamples = 10\nvalue = [10, 0]", fillcolor="#e58139"] ;
205 -> 223 ;
224 [label="Survival_Rate <= 90.314\ngini = 0.447\nsamples = 80\nvalue = [53, 27]", fillcolor="#f2c19e"] ;
38 -> 224 ;
225 [label="Tumor_Growth_Rate <= 0.649\ngini = 0.472\nsamples = 68\nvalue = [42, 26]", fillcolor="#f5cfb4"] ;
224 -> 225 ;
226 [label="Tumor_Growth_Rate <= 0.207\ngini = 0.431\nsamples = 54\nvalue = [37, 17]", fillcolor="#f1bb94"] ;
225 -> 226 ;
227 [label="Tumor_Type_1 <= 0.5\ngini = 0.32\nsamples = 5\nvalue = [1, 4]", fillcolor="#6ab6ec"] ;
226 -> 227 ;
228 [label="gini = 0.0\nsamples = 1\nvalue = [1, 0]", fillcolor="#e58139"] ;
227 -> 228 ;
229 [label="gini = 0.0\nsamples = 4\nvalue = [0, 4]", fillcolor="#399de5"] ;
227 -> 229 ;
230 [label="Histology_0 <= 0.5\ngini = 0.39\nsamples = 49\nvalue = [36, 13]", fillcolor="#eeae80"] ;
226 -> 230 ;
231 [label="Tumor_Growth_Rate <= 0.412\ngini = 0.307\nsamples = 37\nvalue = [30, 7]", fillcolor="#eb9e67"] ;
230 -> 231 ;
232 [label="Tumor_Growth_Rate <= 0.276\ngini = 0.432\nsamples = 19\nvalue = [13, 6]", fillcolor="#f1bb94"] ;
231 -> 232 ;
233 [label="gini = 0.0\nsamples = 6\nvalue = [6, 0]", fillcolor="#e58139"] ;
232 -> 233 ;
234 [label="Survival_Rate <= 73.459\ngini = 0.497\nsamples = 13\nvalue = [7, 6]", fillcolor="#fbede3"] ;
232 -> 234 ;
235 [label="Tumor_Size <= 3.307\ngini = 0.278\nsamples = 6\nvalue = [1, 5]", fillcolor="#61b1ea"] ;
234 -> 235 ;
236 [label="gini = 0.0\nsamples = 1\nvalue = [1, 0]", fillcolor="#e58139"] ;
235 -> 236 ;
237 [label="gini = 0.0\nsamples = 5\nvalue = [0, 5]", fillcolor="#399de5"] ;
235 -> 237 ;
238 [label="Symptom_1_1 <= 0.5\ngini = 0.245\nsamples = 7\nvalue = [6, 1]", fillcolor="#e9965a"] ;
234 -> 238 ;
239 [label="Gender_1 <= 0.5\ngini = 0.5\nsamples = 2\nvalue = [1, 1]", fillcolor="#ffffff"] ;
238 -> 239 ;
240 [label="gini = 0.0\nsamples = 1\nvalue = [1, 0]", fillcolor="#e58139"] ;
239 -> 240 ;
241 [label="gini = 0.0\nsamples = 1\nvalue = [0, 1]", fillcolor="#399de5"] ;
239 -> 241 ;
242 [label="gini = 0.0\nsamples = 5\nvalue = [5, 0]", fillcolor="#e58139"] ;
238 -> 242 ;
243 [label="Tumor_Growth_Rate <= 0.624\ngini = 0.105\nsamples = 18\nvalue = [17, 1]", fillcolor="#e78845"] ;
231 -> 243 ;
244 [label="gini = 0.0\nsamples = 15\nvalue = [15, 0]", fillcolor="#e58139"] ;
243 -> 244 ;
245 [label="Survival_Rate <= 69.288\ngini = 0.444\nsamples = 3\nvalue = [2, 1]", fillcolor="#f2c09c"] ;
243 -> 245 ;
246 [label="gini = 0.0\nsamples = 1\nvalue = [0, 1]", fillcolor="#399de5"] ;
245 -> 246 ;
247 [label="gini = 0.0\nsamples = 2\nvalue = [2, 0]", fillcolor="#e58139"] ;
245 -> 247 ;
248 [label="MRI_Result_1 <= 0.5\ngini = 0.5\nsamples = 12\nvalue = [6, 6]", fillcolor="#ffffff"] ;
230 -> 248 ;
249 [label="Location_0 <= 0.5\ngini = 0.278\nsamples = 6\nvalue = [5, 1]", fillcolor="#ea9a61"] ;
248 -> 249 ;
250 [label="gini = 0.0\nsamples = 5\nvalue = [5, 0]", fillcolor="#e58139"] ;
249 -> 250 ;
251 [label="gini = 0.0\nsamples = 1\nvalue = [0, 1]", fillcolor="#399de5"] ;
249 -> 251 ;
252 [label="Chemotherapy_0 <= 0.5\ngini = 0.278\nsamples = 6\nvalue = [1, 5]", fillcolor="#61b1ea"] ;
248 -> 252 ;
253 [label="gini = 0.0\nsamples = 5\nvalue = [0, 5]", fillcolor="#399de5"] ;
252 -> 253 ;
254 [label="gini = 0.0\nsamples = 1\nvalue = [1, 0]", fillcolor="#e58139"] ;
252 -> 254 ;
255 [label="Symptom_3_2 <= 0.5\ngini = 0.459\nsamples = 14\nvalue = [5, 9]", fillcolor="#a7d3f3"] ;
225 -> 255 ;
256 [label="Family_History_0 <= 0.5\ngini = 0.444\nsamples = 6\nvalue = [4, 2]", fillcolor="#f2c09c"] ;
255 -> 256 ;
257 [label="gini = 0.0\nsamples = 4\nvalue = [4, 0]", fillcolor="#e58139"] ;
256 -> 257 ;
258 [label="gini = 0.0\nsamples = 2\nvalue = [0, 2]", fillcolor="#399de5"] ;
256 -> 258 ;
259 [label="Symptom_2_0 <= 0.5\ngini = 0.219\nsamples = 8\nvalue = [1, 7]", fillcolor="#55abe9"] ;
255 -> 259 ;
260 [label="gini = 0.0\nsamples = 7\nvalue = [0, 7]", fillcolor="#399de5"] ;
259 -> 260 ;
261 [label="gini = 0.0\nsamples = 1\nvalue = [1, 0]", fillcolor="#e58139"] ;
259 -> 261 ;
262 [label="Histology_2 <= 0.5\ngini = 0.153\nsamples = 12\nvalue = [11, 1]", fillcolor="#e78c4b"] ;
224 -> 262 ;
263 [label="gini = 0.0\nsamples = 9\nvalue = [9, 0]", fillcolor="#e58139"] ;
262 -> 263 ;
264 [label="Tumor_Size <= 4.077\ngini = 0.444\nsamples = 3\nvalue = [2, 1]", fillcolor="#f2c09c"] ;
262 -> 264 ;
265 [label="gini = 0.0\nsamples = 2\nvalue = [2, 0]", fillcolor="#e58139"] ;
264 -> 265 ;
266 [label="gini = 0.0\nsamples = 1\nvalue = [0, 1]", fillcolor="#399de5"] ;
264 -> 266 ;
267 [label="gini = 0.0\nsamples = 4\nvalue = [0, 4]", fillcolor="#399de5"] ;
37 -> 267 ;
268 [label="Survival_Rate <= 62.331\ngini = 0.444\nsamples = 111\nvalue = [74, 37]", fillcolor="#f2c09c"] ;
36 -> 268 ;
269 [label="Tumor_Growth_Rate <= 0.588\ngini = 0.5\nsamples = 32\nvalue = [16, 16]", fillcolor="#ffffff"] ;
268 -> 269 ;
270 [label="Symptom_1_0 <= 0.5\ngini = 0.461\nsamples = 25\nvalue = [16, 9]", fillcolor="#f4c8a8"] ;
269 -> 270 ;
271 [label="Tumor_Size <= 8.81\ngini = 0.498\nsamples = 17\nvalue = [8, 9]", fillcolor="#e9f4fc"] ;
270 -> 271 ;
272 [label="Symptom_2_2 <= 0.5\ngini = 0.49\nsamples = 14\nvalue = [8, 6]", fillcolor="#f8e0ce"] ;
271 -> 272 ;
273 [label="Symptom_2_1 <= 0.5\ngini = 0.408\nsamples = 7\nvalue = [2, 5]", fillcolor="#88c4ef"] ;
272 -> 273 ;
274 [label="Symptom_3_2 <= 0.5\ngini = 0.444\nsamples = 3\nvalue = [2, 1]", fillcolor="#f2c09c"] ;
273 -> 274 ;
275 [label="gini = 0.0\nsamples = 1\nvalue = [0, 1]", fillcolor="#399de5"] ;
274 -> 275 ;
276 [label="gini = 0.0\nsamples = 2\nvalue = [2, 0]", fillcolor="#e58139"] ;
274 -> 276 ;
277 [label="gini = 0.0\nsamples = 4\nvalue = [0, 4]", fillcolor="#399de5"] ;
273 -> 277 ;
278 [label="Symptom_2_1 <= 0.5\ngini = 0.245\nsamples = 7\nvalue = [6, 1]", fillcolor="#e9965a"] ;
272 -> 278 ;
279 [label="Tumor_Growth_Rate <= 0.329\ngini = 0.5\nsamples = 2\nvalue = [1, 1]", fillcolor="#ffffff"] ;
278 -> 279 ;
280 [label="gini = 0.0\nsamples = 1\nvalue = [1, 0]", fillcolor="#e58139"] ;
279 -> 280 ;
281 [label="gini = 0.0\nsamples = 1\nvalue = [0, 1]", fillcolor="#399de5"] ;
279 -> 281 ;
282 [label="gini = 0.0\nsamples = 5\nvalue = [5, 0]", fillcolor="#e58139"] ;
278 -> 282 ;
283 [label="gini = 0.0\nsamples = 3\nvalue = [0, 3]", fillcolor="#399de5"] ;
271 -> 283 ;
284 [label="gini = 0.0\nsamples = 8\nvalue = [8, 0]", fillcolor="#e58139"] ;
270 -> 284 ;
285 [label="gini = 0.0\nsamples = 7\nvalue = [0, 7]", fillcolor="#399de5"] ;
269 -> 285 ;
286 [label="Surgery_Performed_0 <= 0.5\ngini = 0.39\nsamples = 79\nvalue = [58.0, 21.0]", fillcolor="#eeaf81"] ;
268 -> 286 ;
287 [label="Tumor_Type_0 <= 0.5\ngini = 0.303\nsamples = 43\nvalue = [35, 8]", fillcolor="#eb9e66"] ;
286 -> 287 ;
288 [label="Symptom_2_2 <= 0.5\ngini = 0.454\nsamples = 23\nvalue = [15, 8]", fillcolor="#f3c4a3"] ;
287 -> 288 ;
289 [label="gini = 0.0\nsamples = 7\nvalue = [7, 0]", fillcolor="#e58139"] ;
288 -> 289 ;
290 [label="Tumor_Growth_Rate <= 0.362\ngini = 0.5\nsamples = 16\nvalue = [8, 8]", fillcolor="#ffffff"] ;
288 -> 290 ;
291 [label="gini = 0.0\nsamples = 3\nvalue = [0, 3]", fillcolor="#399de5"] ;
290 -> 291 ;
292 [label="Tumor_Size <= 8.883\ngini = 0.473\nsamples = 13\nvalue = [8, 5]", fillcolor="#f5d0b5"] ;
290 -> 292 ;
293 [label="Survival_Rate <= 91.613\ngini = 0.32\nsamples = 10\nvalue = [8, 2]", fillcolor="#eca06a"] ;
292 -> 293 ;
294 [label="Tumor_Growth_Rate <= 0.408\ngini = 0.198\nsamples = 9\nvalue = [8, 1]", fillcolor="#e89152"] ;
293 -> 294 ;
295 [label="Location_2 <= 0.5\ngini = 0.5\nsamples = 2\nvalue = [1, 1]", fillcolor="#ffffff"] ;
294 -> 295 ;
296 [label="gini = 0.0\nsamples = 1\nvalue = [0, 1]", fillcolor="#399de5"] ;
295 -> 296 ;
297 [label="gini = 0.0\nsamples = 1\nvalue = [1, 0]", fillcolor="#e58139"] ;
295 -> 297 ;
298 [label="gini = 0.0\nsamples = 7\nvalue = [7, 0]", fillcolor="#e58139"] ;
294 -> 298 ;
299 [label="gini = 0.0\nsamples = 1\nvalue = [0, 1]", fillcolor="#399de5"] ;
293 -> 299 ;
300 [label="gini = 0.0\nsamples = 3\nvalue = [0, 3]", fillcolor="#399de5"] ;
292 -> 300 ;
301 [label="gini = 0.0\nsamples = 20\nvalue = [20, 0]", fillcolor="#e58139"] ;
287 -> 301 ;
302 [label="Stage_2 <= 0.5\ngini = 0.461\nsamples = 36\nvalue = [23, 13]", fillcolor="#f4c8a9"] ;
286 -> 302 ;
303 [label="Age <= 29.0\ngini = 0.291\nsamples = 17\nvalue = [14, 3]", fillcolor="#eb9c63"] ;
302 -> 303 ;
304 [label="Tumor_Growth_Rate <= 0.673\ngini = 0.124\nsamples = 15\nvalue = [14, 1]", fillcolor="#e78a47"] ;
303 -> 304 ;
305 [label="gini = 0.0\nsamples = 13\nvalue = [13, 0]", fillcolor="#e58139"] ;
304 -> 305 ;
306 [label="Symptom_2_0 <= 0.5\ngini = 0.5\nsamples = 2\nvalue = [1, 1]", fillcolor="#ffffff"] ;
304 -> 306 ;
307 [label="gini = 0.0\nsamples = 1\nvalue = [0, 1]", fillcolor="#399de5"] ;
306 -> 307 ;
308 [label="gini = 0.0\nsamples = 1\nvalue = [1, 0]", fillcolor="#e58139"] ;
306 -> 308 ;
309 [label="gini = 0.0\nsamples = 2\nvalue = [0, 2]", fillcolor="#399de5"] ;
303 -> 309 ;
310 [label="Tumor_Size <= 8.82\ngini = 0.499\nsamples = 19\nvalue = [9, 10]", fillcolor="#ebf5fc"] ;
302 -> 310 ;
311 [label="Tumor_Growth_Rate <= 0.219\ngini = 0.444\nsamples = 15\nvalue = [5, 10]", fillcolor="#9ccef2"] ;
310 -> 311 ;
312 [label="gini = 0.0\nsamples = 2\nvalue = [2, 0]", fillcolor="#e58139"] ;
311 -> 312 ;
313 [label="Gender_0 <= 0.5\ngini = 0.355\nsamples = 13\nvalue = [3, 10]", fillcolor="#74baed"] ;
311 -> 313 ;
314 [label="gini = 0.0\nsamples = 7\nvalue = [0, 7]", fillcolor="#399de5"] ;
313 -> 314 ;
315 [label="Survival_Rate <= 90.713\ngini = 0.5\nsamples = 6\nvalue = [3, 3]", fillcolor="#ffffff"] ;
313 -> 315 ;
316 [label="gini = 0.0\nsamples = 3\nvalue = [3, 0]", fillcolor="#e58139"] ;
315 -> 316 ;
317 [label="gini = 0.0\nsamples = 3\nvalue = [0, 3]", fillcolor="#399de5"] ;
315 -> 317 ;
318 [label="gini = 0.0\nsamples = 4\nvalue = [4, 0]", fillcolor="#e58139"] ;
310 -> 318 ;
319 [label="Symptom_3_0 <= 0.5\ngini = 0.494\nsamples = 65\nvalue = [29, 36]", fillcolor="#d9ecfa"] ;
35 -> 319 ;
320 [label="Survival_Rate <= 41.212\ngini = 0.468\nsamples = 51\nvalue = [19, 32]", fillcolor="#afd7f4"] ;
319 -> 320 ;
321 [label="gini = 0.0\nsamples = 2\nvalue = [2, 0]", fillcolor="#e58139"] ;
320 -> 321 ;
322 [label="Chemotherapy_1 <= 0.5\ngini = 0.453\nsamples = 49\nvalue = [17.0, 32.0]", fillcolor="#a2d1f3"] ;
320 -> 322 ;
323 [label="Histology_1 <= 0.5\ngini = 0.355\nsamples = 26\nvalue = [6, 20]", fillcolor="#74baed"] ;
322 -> 323 ;
324 [label="Age <= 26.5\ngini = 0.48\nsamples = 15\nvalue = [6, 9]", fillcolor="#bddef6"] ;
323 -> 324 ;
325 [label="Gender_1 <= 0.5\ngini = 0.48\nsamples = 10\nvalue = [6, 4]", fillcolor="#f6d5bd"] ;
324 -> 325 ;
326 [label="gini = 0.0\nsamples = 4\nvalue = [4, 0]", fillcolor="#e58139"] ;
325 -> 326 ;
327 [label="Radiation_Treatment_1 <= 0.5\ngini = 0.444\nsamples = 6\nvalue = [2, 4]", fillcolor="#9ccef2"] ;
325 -> 327 ;
328 [label="gini = 0.0\nsamples = 3\nvalue = [0, 3]", fillcolor="#399de5"] ;
327 -> 328 ;
329 [label="Location_0 <= 0.5\ngini = 0.444\nsamples = 3\nvalue = [2, 1]", fillcolor="#f2c09c"] ;
327 -> 329 ;
330 [label="gini = 0.0\nsamples = 2\nvalue = [2, 0]", fillcolor="#e58139"] ;
329 -> 330 ;
331 [label="gini = 0.0\nsamples = 1\nvalue = [0, 1]", fillcolor="#399de5"] ;
329 -> 331 ;
332 [label="gini = 0.0\nsamples = 5\nvalue = [0, 5]", fillcolor="#399de5"] ;
324 -> 332 ;
333 [label="gini = 0.0\nsamples = 11\nvalue = [0, 11]", fillcolor="#399de5"] ;
323 -> 333 ;
334 [label="Survival_Rate <= 80.531\ngini = 0.499\nsamples = 23\nvalue = [11, 12]", fillcolor="#eff7fd"] ;
322 -> 334 ;
335 [label="MRI_Result_0 <= 0.5\ngini = 0.43\nsamples = 16\nvalue = [5, 11]", fillcolor="#93caf1"] ;
334 -> 335 ;
336 [label="Histology_2 <= 0.5\ngini = 0.444\nsamples = 6\nvalue = [4, 2]", fillcolor="#f2c09c"] ;
335 -> 336 ;
337 [label="gini = 0.0\nsamples = 3\nvalue = [3, 0]", fillcolor="#e58139"] ;
336 -> 337 ;
338 [label="Tumor_Growth_Rate <= 0.458\ngini = 0.444\nsamples = 3\nvalue = [1, 2]", fillcolor="#9ccef2"] ;
336 -> 338 ;
339 [label="gini = 0.0\nsamples = 2\nvalue = [0, 2]", fillcolor="#399de5"] ;
338 -> 339 ;
340 [label="gini = 0.0\nsamples = 1\nvalue = [1, 0]", fillcolor="#e58139"] ;
338 -> 340 ;
341 [label="Survival_Rate <= 45.23\ngini = 0.18\nsamples = 10\nvalue = [1, 9]", fillcolor="#4fa8e8"] ;
335 -> 341 ;
342 [label="Symptom_1_1 <= 0.5\ngini = 0.5\nsamples = 2\nvalue = [1, 1]", fillcolor="#ffffff"] ;
341 -> 342 ;
343 [label="gini = 0.0\nsamples = 1\nvalue = [1, 0]", fillcolor="#e58139"] ;
342 -> 343 ;
344 [label="gini = 0.0\nsamples = 1\nvalue = [0, 1]", fillcolor="#399de5"] ;
342 -> 344 ;
345 [label="gini = 0.0\nsamples = 8\nvalue = [0, 8]", fillcolor="#399de5"] ;
341 -> 345 ;
346 [label="Survival_Rate <= 92.906\ngini = 0.245\nsamples = 7\nvalue = [6, 1]", fillcolor="#e9965a"] ;
334 -> 346 ;
347 [label="gini = 0.0\nsamples = 5\nvalue = [5, 0]", fillcolor="#e58139"] ;
346 -> 347 ;
348 [label="Symptom_2_1 <= 0.5\ngini = 0.5\nsamples = 2\nvalue = [1, 1]", fillcolor="#ffffff"] ;
346 -> 348 ;
349 [label="gini = 0.0\nsamples = 1\nvalue = [0, 1]", fillcolor="#399de5"] ;
348 -> 349 ;
350 [label="gini = 0.0\nsamples = 1\nvalue = [1, 0]", fillcolor="#e58139"] ;
348 -> 350 ;
351 [label="Symptom_2_0 <= 0.5\ngini = 0.408\nsamples = 14\nvalue = [10, 4]", fillcolor="#efb388"] ;
319 -> 351 ;
352 [label="Location_0 <= 0.5\ngini = 0.18\nsamples = 10\nvalue = [9, 1]", fillcolor="#e88f4f"] ;
351 -> 352 ;
353 [label="gini = 0.0\nsamples = 8\nvalue = [8, 0]", fillcolor="#e58139"] ;
352 -> 353 ;
354 [label="Surgery_Performed_1 <= 0.5\ngini = 0.5\nsamples = 2\nvalue = [1, 1]", fillcolor="#ffffff"] ;
352 -> 354 ;
355 [label="gini = 0.0\nsamples = 1\nvalue = [0, 1]", fillcolor="#399de5"] ;
354 -> 355 ;
356 [label="gini = 0.0\nsamples = 1\nvalue = [1, 0]", fillcolor="#e58139"] ;
354 -> 356 ;
357 [label="Tumor_Type_1 <= 0.5\ngini = 0.375\nsamples = 4\nvalue = [1, 3]", fillcolor="#7bbeee"] ;
351 -> 357 ;
358 [label="gini = 0.0\nsamples = 3\nvalue = [0, 3]", fillcolor="#399de5"] ;
357 -> 358 ;
359 [label="gini = 0.0\nsamples = 1\nvalue = [1, 0]", fillcolor="#e58139"] ;
357 -> 359 ;
360 [label="gini = 0.0\nsamples = 7\nvalue = [7, 0]", fillcolor="#e58139"] ;
26 -> 360 ;
361 [label="Survival_Rate <= 75.434\ngini = 0.5\nsamples = 2934\nvalue = [1485, 1449]", fillcolor="#fefcfa"] ;
1 -> 361 ;
362 [label="Age <= 68.5\ngini = 0.5\nsamples = 1737\nvalue = [846.0, 891.0]", fillcolor="#f5fafe"] ;
361 -> 362 ;
363 [label="Tumor_Size <= 9.946\ngini = 0.498\nsamples = 1318\nvalue = [614, 704]", fillcolor="#e6f2fc"] ;
362 -> 363 ;
364 [label="Survival_Rate <= 75.282\ngini = 0.498\nsamples = 1313\nvalue = [614, 699]", fillcolor="#e7f3fc"] ;
363 -> 364 ;
365 [label="Symptom_2_0 <= 0.5\ngini = 0.498\nsamples = 1308\nvalue = [614, 694]", fillcolor="#e8f4fc"] ;
364 -> 365 ;
366 [label="Age <= 51.5\ngini = 0.5\nsamples = 986\nvalue = [479.0, 507.0]", fillcolor="#f4fafe"] ;
365 -> 366 ;
367 [label="Tumor_Growth_Rate <= 0.15\ngini = 0.499\nsamples = 554\nvalue = [287, 267]", fillcolor="#fdf6f1"] ;
366 -> 367 ;
368 [label="Chemotherapy_1 <= 0.5\ngini = 0.467\nsamples = 43\nvalue = [16, 27]", fillcolor="#aed7f4"] ;
367 -> 368 ;
369 [label="Tumor_Growth_Rate <= 0.115\ngini = 0.308\nsamples = 21\nvalue = [4, 17]", fillcolor="#68b4eb"] ;
368 -> 369 ;
370 [label="Tumor_Growth_Rate <= 0.108\ngini = 0.5\nsamples = 6\nvalue = [3, 3]", fillcolor="#ffffff"] ;
369 -> 370 ;
371 [label="Survival_Rate <= 70.166\ngini = 0.375\nsamples = 4\nvalue = [1, 3]", fillcolor="#7bbeee"] ;
370 -> 371 ;
372 [label="gini = 0.0\nsamples = 3\nvalue = [0, 3]", fillcolor="#399de5"] ;
371 -> 372 ;
373 [label="gini = 0.0\nsamples = 1\nvalue = [1, 0]", fillcolor="#e58139"] ;
371 -> 373 ;
374 [label="gini = 0.0\nsamples = 2\nvalue = [2, 0]", fillcolor="#e58139"] ;
370 -> 374 ;
375 [label="Survival_Rate <= 45.142\ngini = 0.124\nsamples = 15\nvalue = [1, 14]", fillcolor="#47a4e7"] ;
369 -> 375 ;
376 [label="Location_0 <= 0.5\ngini = 0.444\nsamples = 3\nvalue = [1, 2]", fillcolor="#9ccef2"] ;
375 -> 376 ;
377 [label="gini = 0.0\nsamples = 2\nvalue = [0, 2]", fillcolor="#399de5"] ;
376 -> 377 ;
378 [label="gini = 0.0\nsamples = 1\nvalue = [1, 0]", fillcolor="#e58139"] ;
376 -> 378 ;
379 [label="gini = 0.0\nsamples = 12\nvalue = [0, 12]", fillcolor="#399de5"] ;
375 -> 379 ;
380 [label="Surgery_Performed_1 <= 0.5\ngini = 0.496\nsamples = 22\nvalue = [12, 10]", fillcolor="#fbeade"] ;
368 -> 380 ;
381 [label="Symptom_1_1 <= 0.5\ngini = 0.32\nsamples = 10\nvalue = [8, 2]", fillcolor="#eca06a"] ;
380 -> 381 ;
382 [label="gini = 0.0\nsamples = 7\nvalue = [7, 0]", fillcolor="#e58139"] ;
381 -> 382 ;
383 [label="Radiation_Treatment_1 <= 0.5\ngini = 0.444\nsamples = 3\nvalue = [1, 2]", fillcolor="#9ccef2"] ;
381 -> 383 ;
384 [label="gini = 0.0\nsamples = 2\nvalue = [0, 2]", fillcolor="#399de5"] ;
383 -> 384 ;
385 [label="gini = 0.0\nsamples = 1\nvalue = [1, 0]", fillcolor="#e58139"] ;
383 -> 385 ;
386 [label="Survival_Rate <= 53.753\ngini = 0.444\nsamples = 12\nvalue = [4, 8]", fillcolor="#9ccef2"] ;
380 -> 386 ;
387 [label="gini = 0.0\nsamples = 4\nvalue = [0, 4]", fillcolor="#399de5"] ;
386 -> 387 ;
388 [label="Survival_Rate <= 71.958\ngini = 0.5\nsamples = 8\nvalue = [4, 4]", fillcolor="#ffffff"] ;
386 -> 388 ;
389 [label="Tumor_Growth_Rate <= 0.143\ngini = 0.444\nsamples = 6\nvalue = [4, 2]", fillcolor="#f2c09c"] ;
388 -> 389 ;
390 [label="Tumor_Size <= 6.654\ngini = 0.32\nsamples = 5\nvalue = [4, 1]", fillcolor="#eca06a"] ;
389 -> 390 ;
391 [label="gini = 0.0\nsamples = 3\nvalue = [3, 0]", fillcolor="#e58139"] ;
390 -> 391 ;
392 [label="Tumor_Type_1 <= 0.5\ngini = 0.5\nsamples = 2\nvalue = [1, 1]", fillcolor="#ffffff"] ;
390 -> 392 ;
393 [label="gini = 0.0\nsamples = 1\nvalue = [0, 1]", fillcolor="#399de5"] ;
392 -> 393 ;
394 [label="gini = 0.0\nsamples = 1\nvalue = [1, 0]", fillcolor="#e58139"] ;
392 -> 394 ;
395 [label="gini = 0.0\nsamples = 1\nvalue = [0, 1]", fillcolor="#399de5"] ;
389 -> 395 ;
396 [label="gini = 0.0\nsamples = 2\nvalue = [0, 2]", fillcolor="#399de5"] ;
388 -> 396 ;
397 [label="Location_2 <= 0.5\ngini = 0.498\nsamples = 511\nvalue = [271, 240]", fillcolor="#fcf1e8"] ;
367 -> 397 ;
398 [label="Tumor_Size <= 0.96\ngini = 0.5\nsamples = 264\nvalue = [128, 136]", fillcolor="#f3f9fd"] ;
397 -> 398 ;
399 [label="Survival_Rate <= 52.887\ngini = 0.391\nsamples = 15\nvalue = [11, 4]", fillcolor="#eeaf81"] ;
398 -> 399 ;
400 [label="Histology_2 <= 0.5\ngini = 0.49\nsamples = 7\nvalue = [3, 4]", fillcolor="#cee6f8"] ;
399 -> 400 ;
401 [label="gini = 0.0\nsamples = 3\nvalue = [0, 3]", fillcolor="#399de5"] ;
400 -> 401 ;
402 [label="Tumor_Size <= 0.8\ngini = 0.375\nsamples = 4\nvalue = [3, 1]", fillcolor="#eeab7b"] ;
400 -> 402 ;
403 [label="gini = 0.0\nsamples = 2\nvalue = [2, 0]", fillcolor="#e58139"] ;
402 -> 403 ;
404 [label="Tumor_Growth_Rate <= 0.402\ngini = 0.5\nsamples = 2\nvalue = [1, 1]", fillcolor="#ffffff"] ;
402 -> 404 ;
405 [label="gini = 0.0\nsamples = 1\nvalue = [1, 0]", fillcolor="#e58139"] ;
404 -> 405 ;
406 [label="gini = 0.0\nsamples = 1\nvalue = [0, 1]", fillcolor="#399de5"] ;
404 -> 406 ;
407 [label="gini = 0.0\nsamples = 8\nvalue = [8, 0]", fillcolor="#e58139"] ;
399 -> 407 ;
408 [label="Tumor_Size <= 1.134\ngini = 0.498\nsamples = 249\nvalue = [117, 132]", fillcolor="#e8f4fc"] ;
398 -> 408 ;
409 [label="gini = 0.0\nsamples = 4\nvalue = [0, 4]", fillcolor="#399de5"] ;
408 -> 409 ;
410 [label="Stage_0 <= 0.5\ngini = 0.499\nsamples = 245\nvalue = [117, 128]", fillcolor="#eef7fd"] ;
408 -> 410 ;
411 [label="Survival_Rate <= 73.255\ngini = 0.5\nsamples = 187\nvalue = [95, 92]", fillcolor="#fefbf9"] ;
410 -> 411 ;
412 [label="Survival_Rate <= 51.006\ngini = 0.498\nsamples = 171\nvalue = [91, 80]", fillcolor="#fcf0e7"] ;
411 -> 412 ;
413 [label="Histology_0 <= 0.5\ngini = 0.478\nsamples = 53\nvalue = [21, 32]", fillcolor="#bbddf6"] ;
412 -> 413 ;
414 [label="Tumor_Size <= 2.213\ngini = 0.399\nsamples = 40\nvalue = [11, 29]", fillcolor="#84c2ef"] ;
413 -> 414 ;
415 [label="gini = 0.0\nsamples = 3\nvalue = [3, 0]", fillcolor="#e58139"] ;
414 -> 415 ;
416 [label="Age <= 50.0\ngini = 0.339\nsamples = 37\nvalue = [8, 29]", fillcolor="#70b8ec"] ;
414 -> 416 ;
417 [label="Tumor_Type_0 <= 0.5\ngini = 0.284\nsamples = 35\nvalue = [6.0, 29.0]", fillcolor="#62b1ea"] ;
416 -> 417 ;
418 [label="Age <= 47.0\ngini = 0.105\nsamples = 18\nvalue = [1, 17]", fillcolor="#45a3e7"] ;
417 -> 418 ;
419 [label="gini = 0.0\nsamples = 16\nvalue = [0, 16]", fillcolor="#399de5"] ;
418 -> 419 ;
420 [label="Symptom_1_1 <= 0.5\ngini = 0.5\nsamples = 2\nvalue = [1, 1]", fillcolor="#ffffff"] ;
418 -> 420 ;
421 [label="gini = 0.0\nsamples = 1\nvalue = [1, 0]", fillcolor="#e58139"] ;
420 -> 421 ;
422 [label="gini = 0.0\nsamples = 1\nvalue = [0, 1]", fillcolor="#399de5"] ;
420 -> 422 ;
423 [label="Tumor_Size <= 5.385\ngini = 0.415\nsamples = 17\nvalue = [5, 12]", fillcolor="#8bc6f0"] ;
417 -> 423 ;
424 [label="Tumor_Size <= 3.303\ngini = 0.5\nsamples = 8\nvalue = [4, 4]", fillcolor="#ffffff"] ;
423 -> 424 ;
425 [label="gini = 0.0\nsamples = 3\nvalue = [0, 3]", fillcolor="#399de5"] ;
424 -> 425 ;
426 [label="Chemotherapy_0 <= 0.5\ngini = 0.32\nsamples = 5\nvalue = [4, 1]", fillcolor="#eca06a"] ;
424 -> 426 ;
427 [label="gini = 0.0\nsamples = 3\nvalue = [3, 0]", fillcolor="#e58139"] ;
426 -> 427 ;
428 [label="Tumor_Growth_Rate <= 0.401\ngini = 0.5\nsamples = 2\nvalue = [1, 1]", fillcolor="#ffffff"] ;
426 -> 428 ;
429 [label="gini = 0.0\nsamples = 1\nvalue = [0, 1]", fillcolor="#399de5"] ;
428 -> 429 ;
430 [label="gini = 0.0\nsamples = 1\nvalue = [1, 0]", fillcolor="#e58139"] ;
428 -> 430 ;
431 [label="Symptom_2_2 <= 0.5\ngini = 0.198\nsamples = 9\nvalue = [1, 8]", fillcolor="#52a9e8"] ;
423 -> 431 ;
432 [label="gini = 0.0\nsamples = 1\nvalue = [1, 0]", fillcolor="#e58139"] ;
431 -> 432 ;
433 [label="gini = 0.0\nsamples = 8\nvalue = [0, 8]", fillcolor="#399de5"] ;
431 -> 433 ;
434 [label="gini = 0.0\nsamples = 2\nvalue = [2, 0]", fillcolor="#e58139"] ;
416 -> 434 ;
435 [label="Survival_Rate <= 44.67\ngini = 0.355\nsamples = 13\nvalue = [10, 3]", fillcolor="#eda774"] ;
413 -> 435 ;
436 [label="gini = 0.0\nsamples = 10\nvalue = [10, 0]", fillcolor="#e58139"] ;
435 -> 436 ;
437 [label="gini = 0.0\nsamples = 3\nvalue = [0, 3]", fillcolor="#399de5"] ;
435 -> 437 ;
438 [label="Stage_1 <= 0.5\ngini = 0.483\nsamples = 118\nvalue = [70, 48]", fillcolor="#f7d7c1"] ;
412 -> 438 ;
439 [label="Symptom_1_1 <= 0.5\ngini = 0.36\nsamples = 34\nvalue = [26, 8]", fillcolor="#eda876"] ;
438 -> 439 ;
440 [label="Tumor_Size <= 7.697\ngini = 0.111\nsamples = 17\nvalue = [16, 1]", fillcolor="#e78945"] ;
439 -> 440 ;
441 [label="gini = 0.0\nsamples = 14\nvalue = [14, 0]", fillcolor="#e58139"] ;
440 -> 441 ;
442 [label="Tumor_Growth_Rate <= 0.395\ngini = 0.444\nsamples = 3\nvalue = [2, 1]", fillcolor="#f2c09c"] ;
440 -> 442 ;
443 [label="gini = 0.0\nsamples = 1\nvalue = [0, 1]", fillcolor="#399de5"] ;
442 -> 443 ;
444 [label="gini = 0.0\nsamples = 2\nvalue = [2, 0]", fillcolor="#e58139"] ;
442 -> 444 ;
445 [label="Age <= 35.5\ngini = 0.484\nsamples = 17\nvalue = [10, 7]", fillcolor="#f7d9c4"] ;
439 -> 445 ;
446 [label="gini = 0.0\nsamples = 3\nvalue = [0, 3]", fillcolor="#399de5"] ;
445 -> 446 ;
447 [label="Symptom_1_2 <= 0.5\ngini = 0.408\nsamples = 14\nvalue = [10, 4]", fillcolor="#efb388"] ;
445 -> 447 ;
448 [label="Tumor_Size <= 1.915\ngini = 0.48\nsamples = 5\nvalue = [2, 3]", fillcolor="#bddef6"] ;
447 -> 448 ;
449 [label="gini = 0.0\nsamples = 2\nvalue = [0, 2]", fillcolor="#399de5"] ;
448 -> 449 ;
450 [label="Radiation_Treatment_1 <= 0.5\ngini = 0.444\nsamples = 3\nvalue = [2, 1]", fillcolor="#f2c09c"] ;
448 -> 450 ;
451 [label="gini = 0.0\nsamples = 1\nvalue = [0, 1]", fillcolor="#399de5"] ;
450 -> 451 ;
452 [label="gini = 0.0\nsamples = 2\nvalue = [2, 0]", fillcolor="#e58139"] ;
450 -> 452 ;
453 [label="Histology_0 <= 0.5\ngini = 0.198\nsamples = 9\nvalue = [8, 1]", fillcolor="#e89152"] ;
447 -> 453 ;
454 [label="gini = 0.0\nsamples = 7\nvalue = [7, 0]", fillcolor="#e58139"] ;
453 -> 454 ;
455 [label="Location_0 <= 0.5\ngini = 0.5\nsamples = 2\nvalue = [1, 1]", fillcolor="#ffffff"] ;
453 -> 455 ;
456 [label="gini = 0.0\nsamples = 1\nvalue = [1, 0]", fillcolor="#e58139"] ;
455 -> 456 ;
457 [label="gini = 0.0\nsamples = 1\nvalue = [0, 1]", fillcolor="#399de5"] ;
455 -> 457 ;
458 [label="Survival_Rate <= 62.919\ngini = 0.499\nsamples = 84\nvalue = [44, 40]", fillcolor="#fdf4ed"] ;
438 -> 458 ;
459 [label="Radiation_Treatment_1 <= 0.5\ngini = 0.459\nsamples = 42\nvalue = [27.0, 15.0]", fillcolor="#f3c7a7"] ;
458 -> 459 ;
460 [label="Age <= 48.0\ngini = 0.32\nsamples = 20\nvalue = [16, 4]", fillcolor="#eca06a"] ;
459 -> 460 ;
461 [label="Tumor_Size <= 1.284\ngini = 0.198\nsamples = 18\nvalue = [16, 2]", fillcolor="#e89152"] ;
460 -> 461 ;
462 [label="gini = 0.0\nsamples = 1\nvalue = [0, 1]", fillcolor="#399de5"] ;
461 -> 462 ;
463 [label="Tumor_Size <= 4.123\ngini = 0.111\nsamples = 17\nvalue = [16, 1]", fillcolor="#e78945"] ;
461 -> 463 ;
464 [label="Survival_Rate <= 56.363\ngini = 0.444\nsamples = 3\nvalue = [2, 1]", fillcolor="#f2c09c"] ;
463 -> 464 ;
465 [label="gini = 0.0\nsamples = 1\nvalue = [0, 1]", fillcolor="#399de5"] ;
464 -> 465 ;
466 [label="gini = 0.0\nsamples = 2\nvalue = [2, 0]", fillcolor="#e58139"] ;
464 -> 466 ;
467 [label="gini = 0.0\nsamples = 14\nvalue = [14, 0]", fillcolor="#e58139"] ;
463 -> 467 ;
468 [label="gini = 0.0\nsamples = 2\nvalue = [0, 2]", fillcolor="#399de5"] ;
460 -> 468 ;
469 [label="Tumor_Size <= 5.985\ngini = 0.5\nsamples = 22\nvalue = [11, 11]", fillcolor="#ffffff"] ;
459 -> 469 ;
470 [label="Tumor_Size <= 2.448\ngini = 0.375\nsamples = 12\nvalue = [9, 3]", fillcolor="#eeab7b"] ;
469 -> 470 ;
471 [label="Age <= 36.5\ngini = 0.444\nsamples = 3\nvalue = [1, 2]", fillcolor="#9ccef2"] ;
470 -> 471 ;
472 [label="gini = 0.0\nsamples = 1\nvalue = [1, 0]", fillcolor="#e58139"] ;
471 -> 472 ;
473 [label="gini = 0.0\nsamples = 2\nvalue = [0, 2]", fillcolor="#399de5"] ;
471 -> 473 ;
474 [label="Tumor_Growth_Rate <= 0.223\ngini = 0.198\nsamples = 9\nvalue = [8, 1]", fillcolor="#e89152"] ;
470 -> 474 ;
475 [label="Chemotherapy_1 <= 0.5\ngini = 0.5\nsamples = 2\nvalue = [1, 1]", fillcolor="#ffffff"] ;
474 -> 475 ;
476 [label="gini = 0.0\nsamples = 1\nvalue = [0, 1]", fillcolor="#399de5"] ;
475 -> 476 ;
477 [label="gini = 0.0\nsamples = 1\nvalue = [1, 0]", fillcolor="#e58139"] ;
475 -> 477 ;
478 [label="gini = 0.0\nsamples = 7\nvalue = [7, 0]", fillcolor="#e58139"] ;
474 -> 478 ;
479 [label="Age <= 45.5\ngini = 0.32\nsamples = 10\nvalue = [2, 8]", fillcolor="#6ab6ec"] ;
469 -> 479 ;
480 [label="Age <= 33.5\ngini = 0.198\nsamples = 9\nvalue = [1, 8]", fillcolor="#52a9e8"] ;
479 -> 480 ;
481 [label="Tumor_Size <= 7.591\ngini = 0.5\nsamples = 2\nvalue = [1, 1]", fillcolor="#ffffff"] ;
480 -> 481 ;
482 [label="gini = 0.0\nsamples = 1\nvalue = [0, 1]", fillcolor="#399de5"] ;
481 -> 482 ;
483 [label="gini = 0.0\nsamples = 1\nvalue = [1, 0]", fillcolor="#e58139"] ;
481 -> 483 ;
484 [label="gini = 0.0\nsamples = 7\nvalue = [0, 7]", fillcolor="#399de5"] ;
480 -> 484 ;
485 [label="gini = 0.0\nsamples = 1\nvalue = [1, 0]", fillcolor="#e58139"] ;
479 -> 485 ;
486 [label="Age <= 48.5\ngini = 0.482\nsamples = 42\nvalue = [17, 25]", fillcolor="#c0e0f7"] ;
458 -> 486 ;
487 [label="Tumor_Growth_Rate <= 0.786\ngini = 0.45\nsamples = 38\nvalue = [13, 25]", fillcolor="#a0d0f3"] ;
486 -> 487 ;
488 [label="Age <= 34.5\ngini = 0.424\nsamples = 36\nvalue = [11, 25]", fillcolor="#90c8f0"] ;
487 -> 488 ;
489 [label="Tumor_Growth_Rate <= 0.246\ngini = 0.48\nsamples = 10\nvalue = [6, 4]", fillcolor="#f6d5bd"] ;
488 -> 489 ;
490 [label="gini = 0.0\nsamples = 4\nvalue = [4, 0]", fillcolor="#e58139"] ;
489 -> 490 ;
491 [label="Survival_Rate <= 66.269\ngini = 0.444\nsamples = 6\nvalue = [2, 4]", fillcolor="#9ccef2"] ;
489 -> 491 ;
492 [label="gini = 0.0\nsamples = 2\nvalue = [2, 0]", fillcolor="#e58139"] ;
491 -> 492 ;
493 [label="gini = 0.0\nsamples = 4\nvalue = [0, 4]", fillcolor="#399de5"] ;
491 -> 493 ;
494 [label="Radiation_Treatment_0 <= 0.5\ngini = 0.311\nsamples = 26\nvalue = [5, 21]", fillcolor="#68b4eb"] ;
488 -> 494 ;
495 [label="Histology_2 <= 0.5\ngini = 0.444\nsamples = 15\nvalue = [5, 10]", fillcolor="#9ccef2"] ;
494 -> 495 ;
496 [label="gini = 0.0\nsamples = 6\nvalue = [0, 6]", fillcolor="#399de5"] ;
495 -> 496 ;
497 [label="Survival_Rate <= 65.276\ngini = 0.494\nsamples = 9\nvalue = [5, 4]", fillcolor="#fae6d7"] ;
495 -> 497 ;
498 [label="gini = 0.0\nsamples = 3\nvalue = [0, 3]", fillcolor="#399de5"] ;
497 -> 498 ;
499 [label="Stage_2 <= 0.5\ngini = 0.278\nsamples = 6\nvalue = [5, 1]", fillcolor="#ea9a61"] ;
497 -> 499 ;
500 [label="gini = 0.0\nsamples = 5\nvalue = [5, 0]", fillcolor="#e58139"] ;
499 -> 500 ;
501 [label="gini = 0.0\nsamples = 1\nvalue = [0, 1]", fillcolor="#399de5"] ;
499 -> 501 ;
502 [label="gini = 0.0\nsamples = 11\nvalue = [0, 11]", fillcolor="#399de5"] ;
494 -> 502 ;
503 [label="gini = 0.0\nsamples = 2\nvalue = [2, 0]", fillcolor="#e58139"] ;
487 -> 503 ;
504 [label="gini = 0.0\nsamples = 4\nvalue = [4, 0]", fillcolor="#e58139"] ;
486 -> 504 ;
505 [label="Tumor_Growth_Rate <= 0.399\ngini = 0.375\nsamples = 16\nvalue = [4, 12]", fillcolor="#7bbeee"] ;
411 -> 505 ;
506 [label="gini = 0.0\nsamples = 8\nvalue = [0, 8]", fillcolor="#399de5"] ;
505 -> 506 ;
507 [label="Gender_0 <= 0.5\ngini = 0.5\nsamples = 8\nvalue = [4, 4]", fillcolor="#ffffff"] ;
505 -> 507 ;
508 [label="Tumor_Type_0 <= 0.5\ngini = 0.32\nsamples = 5\nvalue = [4, 1]", fillcolor="#eca06a"] ;
507 -> 508 ;
509 [label="gini = 0.0\nsamples = 1\nvalue = [0, 1]", fillcolor="#399de5"] ;
508 -> 509 ;
510 [label="gini = 0.0\nsamples = 4\nvalue = [4, 0]", fillcolor="#e58139"] ;
508 -> 510 ;
511 [label="gini = 0.0\nsamples = 3\nvalue = [0, 3]", fillcolor="#399de5"] ;
507 -> 511 ;
512 [label="Tumor_Size <= 8.33\ngini = 0.471\nsamples = 58\nvalue = [22, 36]", fillcolor="#b2d9f5"] ;
410 -> 512 ;
513 [label="Survival_Rate <= 72.659\ngini = 0.411\nsamples = 45\nvalue = [13.0, 32.0]", fillcolor="#89c5f0"] ;
512 -> 513 ;
514 [label="Histology_0 <= 0.5\ngini = 0.363\nsamples = 42\nvalue = [10, 32]", fillcolor="#77bced"] ;
513 -> 514 ;
515 [label="Tumor_Growth_Rate <= 0.691\ngini = 0.231\nsamples = 30\nvalue = [4, 26]", fillcolor="#57ace9"] ;
514 -> 515 ;
516 [label="Tumor_Size <= 4.563\ngini = 0.137\nsamples = 27\nvalue = [2, 25]", fillcolor="#49a5e7"] ;
515 -> 516 ;
517 [label="Tumor_Size <= 4.397\ngini = 0.32\nsamples = 10\nvalue = [2, 8]", fillcolor="#6ab6ec"] ;
516 -> 517 ;
518 [label="gini = 0.0\nsamples = 8\nvalue = [0, 8]", fillcolor="#399de5"] ;
517 -> 518 ;
519 [label="gini = 0.0\nsamples = 2\nvalue = [2, 0]", fillcolor="#e58139"] ;
517 -> 519 ;
520 [label="gini = 0.0\nsamples = 17\nvalue = [0, 17]", fillcolor="#399de5"] ;
516 -> 520 ;
521 [label="Location_1 <= 0.5\ngini = 0.444\nsamples = 3\nvalue = [2, 1]", fillcolor="#f2c09c"] ;
515 -> 521 ;
522 [label="gini = 0.0\nsamples = 1\nvalue = [0, 1]", fillcolor="#399de5"] ;
521 -> 522 ;
523 [label="gini = 0.0\nsamples = 2\nvalue = [2, 0]", fillcolor="#e58139"] ;
521 -> 523 ;
524 [label="Survival_Rate <= 54.806\ngini = 0.5\nsamples = 12\nvalue = [6, 6]", fillcolor="#ffffff"] ;
514 -> 524 ;
525 [label="gini = 0.0\nsamples = 4\nvalue = [4, 0]", fillcolor="#e58139"] ;
524 -> 525 ;
526 [label="Tumor_Size <= 8.006\ngini = 0.375\nsamples = 8\nvalue = [2, 6]", fillcolor="#7bbeee"] ;
524 -> 526 ;
527 [label="gini = 0.0\nsamples = 6\nvalue = [0, 6]", fillcolor="#399de5"] ;
526 -> 527 ;
528 [label="gini = 0.0\nsamples = 2\nvalue = [2, 0]", fillcolor="#e58139"] ;
526 -> 528 ;
529 [label="gini = 0.0\nsamples = 3\nvalue = [3, 0]", fillcolor="#e58139"] ;
513 -> 529 ;
530 [label="Tumor_Growth_Rate <= 0.329\ngini = 0.426\nsamples = 13\nvalue = [9, 4]", fillcolor="#f1b991"] ;
512 -> 530 ;
531 [label="Tumor_Growth_Rate <= 0.183\ngini = 0.32\nsamples = 5\nvalue = [1, 4]", fillcolor="#6ab6ec"] ;
530 -> 531 ;
532 [label="gini = 0.0\nsamples = 1\nvalue = [1, 0]", fillcolor="#e58139"] ;
531 -> 532 ;
533 [label="gini = 0.0\nsamples = 4\nvalue = [0, 4]", fillcolor="#399de5"] ;
531 -> 533 ;
534 [label="gini = 0.0\nsamples = 8\nvalue = [8, 0]", fillcolor="#e58139"] ;
530 -> 534 ;
535 [label="Tumor_Size <= 1.728\ngini = 0.488\nsamples = 247\nvalue = [143, 104]", fillcolor="#f8ddc9"] ;
397 -> 535 ;
536 [label="Symptom_1_2 <= 0.5\ngini = 0.49\nsamples = 35\nvalue = [15, 20]", fillcolor="#cee6f8"] ;
535 -> 536 ;
537 [label="Survival_Rate <= 72.999\ngini = 0.497\nsamples = 24\nvalue = [13, 11]", fillcolor="#fbece1"] ;
536 -> 537 ;
538 [label="Survival_Rate <= 43.99\ngini = 0.472\nsamples = 21\nvalue = [13, 8]", fillcolor="#f5cfb3"] ;
537 -> 538 ;
539 [label="gini = 0.0\nsamples = 2\nvalue = [0, 2]", fillcolor="#399de5"] ;
538 -> 539 ;
540 [label="Survival_Rate <= 49.14\ngini = 0.432\nsamples = 19\nvalue = [13, 6]", fillcolor="#f1bb94"] ;
538 -> 540 ;
541 [label="gini = 0.0\nsamples = 4\nvalue = [4, 0]", fillcolor="#e58139"] ;
540 -> 541 ;
542 [label="Survival_Rate <= 70.92\ngini = 0.48\nsamples = 15\nvalue = [9, 6]", fillcolor="#f6d5bd"] ;
540 -> 542 ;
543 [label="MRI_Result_0 <= 0.5\ngini = 0.496\nsamples = 11\nvalue = [5, 6]", fillcolor="#deeffb"] ;
542 -> 543 ;
544 [label="Stage_2 <= 0.5\ngini = 0.469\nsamples = 8\nvalue = [5, 3]", fillcolor="#f5cdb0"] ;
543 -> 544 ;
545 [label="gini = 0.0\nsamples = 4\nvalue = [4, 0]", fillcolor="#e58139"] ;
544 -> 545 ;
546 [label="Symptom_3_2 <= 0.5\ngini = 0.375\nsamples = 4\nvalue = [1, 3]", fillcolor="#7bbeee"] ;
544 -> 546 ;
547 [label="gini = 0.0\nsamples = 1\nvalue = [1, 0]", fillcolor="#e58139"] ;
546 -> 547 ;
548 [label="gini = 0.0\nsamples = 3\nvalue = [0, 3]", fillcolor="#399de5"] ;
546 -> 548 ;
549 [label="gini = 0.0\nsamples = 3\nvalue = [0, 3]", fillcolor="#399de5"] ;
543 -> 549 ;
550 [label="gini = 0.0\nsamples = 4\nvalue = [4, 0]", fillcolor="#e58139"] ;
542 -> 550 ;
551 [label="gini = 0.0\nsamples = 3\nvalue = [0, 3]", fillcolor="#399de5"] ;
537 -> 551 ;
552 [label="Survival_Rate <= 66.563\ngini = 0.298\nsamples = 11\nvalue = [2, 9]", fillcolor="#65b3eb"] ;
536 -> 552 ;
553 [label="gini = 0.0\nsamples = 9\nvalue = [0, 9]", fillcolor="#399de5"] ;
552 -> 553 ;
554 [label="gini = 0.0\nsamples = 2\nvalue = [2, 0]", fillcolor="#e58139"] ;
552 -> 554 ;
555 [label="Tumor_Size <= 5.118\ngini = 0.478\nsamples = 212\nvalue = [128, 84]", fillcolor="#f6d4bb"] ;
535 -> 555 ;
556 [label="Tumor_Size <= 3.937\ngini = 0.39\nsamples = 79\nvalue = [58.0, 21.0]", fillcolor="#eeaf81"] ;
555 -> 556 ;
557 [label="Tumor_Size <= 3.463\ngini = 0.452\nsamples = 58\nvalue = [38, 20]", fillcolor="#f3c3a1"] ;
556 -> 557 ;
558 [label="Tumor_Growth_Rate <= 0.172\ngini = 0.387\nsamples = 42\nvalue = [31, 11]", fillcolor="#eeae7f"] ;
557 -> 558 ;
559 [label="gini = 0.0\nsamples = 2\nvalue = [0, 2]", fillcolor="#399de5"] ;
558 -> 559 ;
560 [label="Tumor_Growth_Rate <= 0.659\ngini = 0.349\nsamples = 40\nvalue = [31, 9]", fillcolor="#eda672"] ;
558 -> 560 ;
561 [label="Histology_1 <= 0.5\ngini = 0.238\nsamples = 29\nvalue = [25, 4]", fillcolor="#e99559"] ;
560 -> 561 ;
562 [label="Symptom_3_1 <= 0.5\ngini = 0.42\nsamples = 10\nvalue = [7, 3]", fillcolor="#f0b78e"] ;
561 -> 562 ;
563 [label="Tumor_Size <= 2.683\ngini = 0.444\nsamples = 3\nvalue = [1, 2]", fillcolor="#9ccef2"] ;
562 -> 563 ;
564 [label="gini = 0.0\nsamples = 2\nvalue = [0, 2]", fillcolor="#399de5"] ;
563 -> 564 ;
565 [label="gini = 0.0\nsamples = 1\nvalue = [1, 0]", fillcolor="#e58139"] ;
563 -> 565 ;
566 [label="Symptom_1_2 <= 0.5\ngini = 0.245\nsamples = 7\nvalue = [6, 1]", fillcolor="#e9965a"] ;
562 -> 566 ;
567 [label="gini = 0.0\nsamples = 1\nvalue = [0, 1]", fillcolor="#399de5"] ;
566 -> 567 ;
568 [label="gini = 0.0\nsamples = 6\nvalue = [6, 0]", fillcolor="#e58139"] ;
566 -> 568 ;
569 [label="Survival_Rate <= 44.912\ngini = 0.1\nsamples = 19\nvalue = [18, 1]", fillcolor="#e68844"] ;
561 -> 569 ;
570 [label="Tumor_Growth_Rate <= 0.535\ngini = 0.444\nsamples = 3\nvalue = [2, 1]", fillcolor="#f2c09c"] ;
569 -> 570 ;
571 [label="gini = 0.0\nsamples = 2\nvalue = [2, 0]", fillcolor="#e58139"] ;
570 -> 571 ;
572 [label="gini = 0.0\nsamples = 1\nvalue = [0, 1]", fillcolor="#399de5"] ;
570 -> 572 ;
573 [label="gini = 0.0\nsamples = 16\nvalue = [16, 0]", fillcolor="#e58139"] ;
569 -> 573 ;
574 [label="Surgery_Performed_0 <= 0.5\ngini = 0.496\nsamples = 11\nvalue = [6, 5]", fillcolor="#fbeade"] ;
560 -> 574 ;
575 [label="Survival_Rate <= 51.468\ngini = 0.278\nsamples = 6\nvalue = [5, 1]", fillcolor="#ea9a61"] ;
574 -> 575 ;
576 [label="gini = 0.0\nsamples = 1\nvalue = [0, 1]", fillcolor="#399de5"] ;
575 -> 576 ;
577 [label="gini = 0.0\nsamples = 5\nvalue = [5, 0]", fillcolor="#e58139"] ;
575 -> 577 ;
578 [label="Tumor_Size <= 1.935\ngini = 0.32\nsamples = 5\nvalue = [1, 4]", fillcolor="#6ab6ec"] ;
574 -> 578 ;
579 [label="gini = 0.0\nsamples = 1\nvalue = [1, 0]", fillcolor="#e58139"] ;
578 -> 579 ;
580 [label="gini = 0.0\nsamples = 4\nvalue = [0, 4]", fillcolor="#399de5"] ;
578 -> 580 ;
581 [label="Tumor_Growth_Rate <= 0.32\ngini = 0.492\nsamples = 16\nvalue = [7, 9]", fillcolor="#d3e9f9"] ;
557 -> 581 ;
582 [label="Tumor_Size <= 3.608\ngini = 0.375\nsamples = 8\nvalue = [6, 2]", fillcolor="#eeab7b"] ;
581 -> 582 ;
583 [label="gini = 0.0\nsamples = 1\nvalue = [0, 1]", fillcolor="#399de5"] ;
582 -> 583 ;
584 [label="Tumor_Growth_Rate <= 0.187\ngini = 0.245\nsamples = 7\nvalue = [6, 1]", fillcolor="#e9965a"] ;
582 -> 584 ;
585 [label="gini = 0.0\nsamples = 1\nvalue = [0, 1]", fillcolor="#399de5"] ;
584 -> 585 ;
586 [label="gini = 0.0\nsamples = 6\nvalue = [6, 0]", fillcolor="#e58139"] ;
584 -> 586 ;
587 [label="Symptom_3_0 <= 0.5\ngini = 0.219\nsamples = 8\nvalue = [1, 7]", fillcolor="#55abe9"] ;
581 -> 587 ;
588 [label="gini = 0.0\nsamples = 7\nvalue = [0, 7]", fillcolor="#399de5"] ;
587 -> 588 ;
589 [label="gini = 0.0\nsamples = 1\nvalue = [1, 0]", fillcolor="#e58139"] ;
587 -> 589 ;
590 [label="Tumor_Growth_Rate <= 0.724\ngini = 0.091\nsamples = 21\nvalue = [20, 1]", fillcolor="#e68743"] ;
556 -> 590 ;
591 [label="gini = 0.0\nsamples = 19\nvalue = [19, 0]", fillcolor="#e58139"] ;
590 -> 591 ;
592 [label="Surgery_Performed_1 <= 0.5\ngini = 0.5\nsamples = 2\nvalue = [1, 1]", fillcolor="#ffffff"] ;
590 -> 592 ;
593 [label="gini = 0.0\nsamples = 1\nvalue = [1, 0]", fillcolor="#e58139"] ;
592 -> 593 ;
594 [label="gini = 0.0\nsamples = 1\nvalue = [0, 1]", fillcolor="#399de5"] ;
592 -> 594 ;
595 [label="Tumor_Growth_Rate <= 0.676\ngini = 0.499\nsamples = 133\nvalue = [70, 63]", fillcolor="#fcf2eb"] ;
555 -> 595 ;
596 [label="Tumor_Growth_Rate <= 0.361\ngini = 0.499\nsamples = 112\nvalue = [53, 59]", fillcolor="#ebf5fc"] ;
595 -> 596 ;
597 [label="Tumor_Growth_Rate <= 0.303\ngini = 0.468\nsamples = 51\nvalue = [32, 19]", fillcolor="#f4ccaf"] ;
596 -> 597 ;
598 [label="Tumor_Growth_Rate <= 0.209\ngini = 0.5\nsamples = 36\nvalue = [18, 18]", fillcolor="#ffffff"] ;
597 -> 598 ;
599 [label="Symptom_1_0 <= 0.5\ngini = 0.375\nsamples = 12\nvalue = [9, 3]", fillcolor="#eeab7b"] ;
598 -> 599 ;
600 [label="Symptom_1_2 <= 0.5\ngini = 0.18\nsamples = 10\nvalue = [9, 1]", fillcolor="#e88f4f"] ;
599 -> 600 ;
601 [label="Radiation_Treatment_1 <= 0.5\ngini = 0.444\nsamples = 3\nvalue = [2, 1]", fillcolor="#f2c09c"] ;
600 -> 601 ;
602 [label="gini = 0.0\nsamples = 1\nvalue = [0, 1]", fillcolor="#399de5"] ;
601 -> 602 ;
603 [label="gini = 0.0\nsamples = 2\nvalue = [2, 0]", fillcolor="#e58139"] ;
601 -> 603 ;
604 [label="gini = 0.0\nsamples = 7\nvalue = [7, 0]", fillcolor="#e58139"] ;
600 -> 604 ;
605 [label="gini = 0.0\nsamples = 2\nvalue = [0, 2]", fillcolor="#399de5"] ;
599 -> 605 ;
606 [label="Tumor_Size <= 5.585\ngini = 0.469\nsamples = 24\nvalue = [9, 15]", fillcolor="#b0d8f5"] ;
598 -> 606 ;
607 [label="gini = 0.0\nsamples = 4\nvalue = [4, 0]", fillcolor="#e58139"] ;
606 -> 607 ;
608 [label="Symptom_2_1 <= 0.5\ngini = 0.375\nsamples = 20\nvalue = [5, 15]", fillcolor="#7bbeee"] ;
606 -> 608 ;
609 [label="gini = 0.0\nsamples = 7\nvalue = [0, 7]", fillcolor="#399de5"] ;
608 -> 609 ;
610 [label="MRI_Result_0 <= 0.5\ngini = 0.473\nsamples = 13\nvalue = [5, 8]", fillcolor="#b5daf5"] ;
608 -> 610 ;
611 [label="Survival_Rate <= 51.265\ngini = 0.32\nsamples = 5\nvalue = [4, 1]", fillcolor="#eca06a"] ;
610 -> 611 ;
612 [label="gini = 0.0\nsamples = 1\nvalue = [0, 1]", fillcolor="#399de5"] ;
611 -> 612 ;
613 [label="gini = 0.0\nsamples = 4\nvalue = [4, 0]", fillcolor="#e58139"] ;
611 -> 613 ;
614 [label="Age <= 38.5\ngini = 0.219\nsamples = 8\nvalue = [1, 7]", fillcolor="#55abe9"] ;
610 -> 614 ;
615 [label="Symptom_3_0 <= 0.5\ngini = 0.5\nsamples = 2\nvalue = [1, 1]", fillcolor="#ffffff"] ;
614 -> 615 ;
616 [label="gini = 0.0\nsamples = 1\nvalue = [0, 1]", fillcolor="#399de5"] ;
615 -> 616 ;
617 [label="gini = 0.0\nsamples = 1\nvalue = [1, 0]", fillcolor="#e58139"] ;
615 -> 617 ;
618 [label="gini = 0.0\nsamples = 6\nvalue = [0, 6]", fillcolor="#399de5"] ;
614 -> 618 ;
619 [label="Tumor_Size <= 8.51\ngini = 0.124\nsamples = 15\nvalue = [14, 1]", fillcolor="#e78a47"] ;
597 -> 619 ;
620 [label="gini = 0.0\nsamples = 11\nvalue = [11, 0]", fillcolor="#e58139"] ;
619 -> 620 ;
621 [label="Symptom_3_1 <= 0.5\ngini = 0.375\nsamples = 4\nvalue = [3, 1]", fillcolor="#eeab7b"] ;
619 -> 621 ;
622 [label="gini = 0.0\nsamples = 3\nvalue = [3, 0]", fillcolor="#e58139"] ;
621 -> 622 ;
623 [label="gini = 0.0\nsamples = 1\nvalue = [0, 1]", fillcolor="#399de5"] ;
621 -> 623 ;
624 [label="Tumor_Size <= 7.736\ngini = 0.451\nsamples = 61\nvalue = [21, 40]", fillcolor="#a1d0f3"] ;
596 -> 624 ;
625 [label="Family_History_1 <= 0.5\ngini = 0.285\nsamples = 29\nvalue = [5, 24]", fillcolor="#62b1ea"] ;
624 -> 625 ;
626 [label="Tumor_Growth_Rate <= 0.565\ngini = 0.444\nsamples = 15\nvalue = [5, 10]", fillcolor="#9ccef2"] ;
625 -> 626 ;
627 [label="Symptom_1_0 <= 0.5\ngini = 0.198\nsamples = 9\nvalue = [1, 8]", fillcolor="#52a9e8"] ;
626 -> 627 ;
628 [label="gini = 0.0\nsamples = 8\nvalue = [0, 8]", fillcolor="#399de5"] ;
627 -> 628 ;
629 [label="gini = 0.0\nsamples = 1\nvalue = [1, 0]", fillcolor="#e58139"] ;
627 -> 629 ;
630 [label="Tumor_Size <= 7.166\ngini = 0.444\nsamples = 6\nvalue = [4, 2]", fillcolor="#f2c09c"] ;
626 -> 630 ;
631 [label="gini = 0.0\nsamples = 4\nvalue = [4, 0]", fillcolor="#e58139"] ;
630 -> 631 ;
632 [label="gini = 0.0\nsamples = 2\nvalue = [0, 2]", fillcolor="#399de5"] ;
630 -> 632 ;
633 [label="gini = 0.0\nsamples = 14\nvalue = [0, 14]", fillcolor="#399de5"] ;
625 -> 633 ;
634 [label="Age <= 39.5\ngini = 0.5\nsamples = 32\nvalue = [16, 16]", fillcolor="#ffffff"] ;
624 -> 634 ;
635 [label="Tumor_Size <= 9.184\ngini = 0.391\nsamples = 15\nvalue = [11, 4]", fillcolor="#eeaf81"] ;
634 -> 635 ;
636 [label="Survival_Rate <= 57.066\ngini = 0.494\nsamples = 9\nvalue = [5, 4]", fillcolor="#fae6d7"] ;
635 -> 636 ;
637 [label="Tumor_Size <= 8.545\ngini = 0.444\nsamples = 6\nvalue = [2, 4]", fillcolor="#9ccef2"] ;
636 -> 637 ;
638 [label="Survival_Rate <= 49.712\ngini = 0.444\nsamples = 3\nvalue = [2, 1]", fillcolor="#f2c09c"] ;
637 -> 638 ;
639 [label="gini = 0.0\nsamples = 2\nvalue = [2, 0]", fillcolor="#e58139"] ;
638 -> 639 ;
640 [label="gini = 0.0\nsamples = 1\nvalue = [0, 1]", fillcolor="#399de5"] ;
638 -> 640 ;
641 [label="gini = 0.0\nsamples = 3\nvalue = [0, 3]", fillcolor="#399de5"] ;
637 -> 641 ;
642 [label="gini = 0.0\nsamples = 3\nvalue = [3, 0]", fillcolor="#e58139"] ;
636 -> 642 ;
643 [label="gini = 0.0\nsamples = 6\nvalue = [6, 0]", fillcolor="#e58139"] ;
635 -> 643 ;
644 [label="Chemotherapy_0 <= 0.5\ngini = 0.415\nsamples = 17\nvalue = [5, 12]", fillcolor="#8bc6f0"] ;
634 -> 644 ;
645 [label="Symptom_2_1 <= 0.5\ngini = 0.469\nsamples = 8\nvalue = [5, 3]", fillcolor="#f5cdb0"] ;
644 -> 645 ;
646 [label="Family_History_0 <= 0.5\ngini = 0.375\nsamples = 4\nvalue = [1, 3]", fillcolor="#7bbeee"] ;
645 -> 646 ;
647 [label="gini = 0.0\nsamples = 1\nvalue = [1, 0]", fillcolor="#e58139"] ;
646 -> 647 ;
648 [label="gini = 0.0\nsamples = 3\nvalue = [0, 3]", fillcolor="#399de5"] ;
646 -> 648 ;
649 [label="gini = 0.0\nsamples = 4\nvalue = [4, 0]", fillcolor="#e58139"] ;
645 -> 649 ;
650 [label="gini = 0.0\nsamples = 9\nvalue = [0, 9]", fillcolor="#399de5"] ;
644 -> 650 ;
651 [label="Age <= 40.0\ngini = 0.308\nsamples = 21\nvalue = [17, 4]", fillcolor="#eb9f68"] ;
595 -> 651 ;
652 [label="Survival_Rate <= 51.72\ngini = 0.463\nsamples = 11\nvalue = [7, 4]", fillcolor="#f4c9aa"] ;
651 -> 652 ;
653 [label="gini = 0.0\nsamples = 3\nvalue = [0, 3]", fillcolor="#399de5"] ;
652 -> 653 ;
654 [label="Surgery_Performed_0 <= 0.5\ngini = 0.219\nsamples = 8\nvalue = [7, 1]", fillcolor="#e99355"] ;
652 -> 654 ;
655 [label="Tumor_Growth_Rate <= 0.753\ngini = 0.5\nsamples = 2\nvalue = [1, 1]", fillcolor="#ffffff"] ;
654 -> 655 ;
656 [label="gini = 0.0\nsamples = 1\nvalue = [1, 0]", fillcolor="#e58139"] ;
655 -> 656 ;
657 [label="gini = 0.0\nsamples = 1\nvalue = [0, 1]", fillcolor="#399de5"] ;
655 -> 657 ;
658 [label="gini = 0.0\nsamples = 6\nvalue = [6, 0]", fillcolor="#e58139"] ;
654 -> 658 ;
659 [label="gini = 0.0\nsamples = 10\nvalue = [10, 0]", fillcolor="#e58139"] ;
651 -> 659 ;
660 [label="Survival_Rate <= 68.983\ngini = 0.494\nsamples = 432\nvalue = [192, 240]", fillcolor="#d7ebfa"] ;
366 -> 660 ;
661 [label="Chemotherapy_1 <= 0.5\ngini = 0.499\nsamples = 352\nvalue = [169, 183]", fillcolor="#f0f8fd"] ;
660 -> 661 ;
662 [label="Stage_0 <= 0.5\ngini = 0.495\nsamples = 173\nvalue = [95, 78]", fillcolor="#fae8dc"] ;
661 -> 662 ;
663 [label="Survival_Rate <= 41.79\ngini = 0.476\nsamples = 123\nvalue = [75, 48]", fillcolor="#f6d2b8"] ;
662 -> 663 ;
664 [label="Survival_Rate <= 40.099\ngini = 0.18\nsamples = 10\nvalue = [9, 1]", fillcolor="#e88f4f"] ;
663 -> 664 ;
665 [label="gini = 0.0\nsamples = 1\nvalue = [0, 1]", fillcolor="#399de5"] ;
664 -> 665 ;
666 [label="gini = 0.0\nsamples = 9\nvalue = [9, 0]", fillcolor="#e58139"] ;
664 -> 666 ;
667 [label="Survival_Rate <= 66.727\ngini = 0.486\nsamples = 113\nvalue = [66, 47]", fillcolor="#f8dbc6"] ;
663 -> 667 ;
668 [label="Tumor_Growth_Rate <= 0.402\ngini = 0.496\nsamples = 97\nvalue = [53.0, 44.0]", fillcolor="#fbeadd"] ;
667 -> 668 ;
669 [label="Survival_Rate <= 57.867\ngini = 0.433\nsamples = 41\nvalue = [28.0, 13.0]", fillcolor="#f1bc95"] ;
668 -> 669 ;
670 [label="Tumor_Growth_Rate <= 0.139\ngini = 0.328\nsamples = 29\nvalue = [23, 6]", fillcolor="#eca26d"] ;
669 -> 670 ;
671 [label="Radiation_Treatment_0 <= 0.5\ngini = 0.375\nsamples = 4\nvalue = [1, 3]", fillcolor="#7bbeee"] ;
670 -> 671 ;
672 [label="gini = 0.0\nsamples = 1\nvalue = [1, 0]", fillcolor="#e58139"] ;
671 -> 672 ;
673 [label="gini = 0.0\nsamples = 3\nvalue = [0, 3]", fillcolor="#399de5"] ;
671 -> 673 ;
674 [label="Survival_Rate <= 42.156\ngini = 0.211\nsamples = 25\nvalue = [22, 3]", fillcolor="#e99254"] ;
670 -> 674 ;
675 [label="gini = 0.0\nsamples = 1\nvalue = [0, 1]", fillcolor="#399de5"] ;
674 -> 675 ;
676 [label="Tumor_Size <= 2.337\ngini = 0.153\nsamples = 24\nvalue = [22, 2]", fillcolor="#e78c4b"] ;
674 -> 676 ;
677 [label="Radiation_Treatment_1 <= 0.5\ngini = 0.48\nsamples = 5\nvalue = [3, 2]", fillcolor="#f6d5bd"] ;
676 -> 677 ;
678 [label="gini = 0.0\nsamples = 2\nvalue = [0, 2]", fillcolor="#399de5"] ;
677 -> 678 ;
679 [label="gini = 0.0\nsamples = 3\nvalue = [3, 0]", fillcolor="#e58139"] ;
677 -> 679 ;
680 [label="gini = 0.0\nsamples = 19\nvalue = [19, 0]", fillcolor="#e58139"] ;
676 -> 680 ;
681 [label="Symptom_1_0 <= 0.5\ngini = 0.486\nsamples = 12\nvalue = [5, 7]", fillcolor="#c6e3f8"] ;
669 -> 681 ;
682 [label="Symptom_3_2 <= 0.5\ngini = 0.469\nsamples = 8\nvalue = [5, 3]", fillcolor="#f5cdb0"] ;
681 -> 682 ;
683 [label="Tumor_Growth_Rate <= 0.368\ngini = 0.375\nsamples = 4\nvalue = [1, 3]", fillcolor="#7bbeee"] ;
682 -> 683 ;
684 [label="gini = 0.0\nsamples = 3\nvalue = [0, 3]", fillcolor="#399de5"] ;
683 -> 684 ;
685 [label="gini = 0.0\nsamples = 1\nvalue = [1, 0]", fillcolor="#e58139"] ;
683 -> 685 ;
686 [label="gini = 0.0\nsamples = 4\nvalue = [4, 0]", fillcolor="#e58139"] ;
682 -> 686 ;
687 [label="gini = 0.0\nsamples = 4\nvalue = [0, 4]", fillcolor="#399de5"] ;
681 -> 687 ;
688 [label="Symptom_3_1 <= 0.5\ngini = 0.494\nsamples = 56\nvalue = [25, 31]", fillcolor="#d9ecfa"] ;
668 -> 688 ;
689 [label="Tumor_Size <= 4.107\ngini = 0.417\nsamples = 27\nvalue = [8, 19]", fillcolor="#8cc6f0"] ;
688 -> 689 ;
690 [label="MRI_Result_1 <= 0.5\ngini = 0.48\nsamples = 10\nvalue = [6, 4]", fillcolor="#f6d5bd"] ;
689 -> 690 ;
691 [label="Tumor_Type_0 <= 0.5\ngini = 0.278\nsamples = 6\nvalue = [5, 1]", fillcolor="#ea9a61"] ;
690 -> 691 ;
692 [label="Histology_0 <= 0.5\ngini = 0.5\nsamples = 2\nvalue = [1, 1]", fillcolor="#ffffff"] ;
691 -> 692 ;
693 [label="gini = 0.0\nsamples = 1\nvalue = [0, 1]", fillcolor="#399de5"] ;
692 -> 693 ;
694 [label="gini = 0.0\nsamples = 1\nvalue = [1, 0]", fillcolor="#e58139"] ;
692 -> 694 ;
695 [label="gini = 0.0\nsamples = 4\nvalue = [4, 0]", fillcolor="#e58139"] ;
691 -> 695 ;
696 [label="Survival_Rate <= 60.45\ngini = 0.375\nsamples = 4\nvalue = [1, 3]", fillcolor="#7bbeee"] ;
690 -> 696 ;
697 [label="gini = 0.0\nsamples = 3\nvalue = [0, 3]", fillcolor="#399de5"] ;
696 -> 697 ;
698 [label="gini = 0.0\nsamples = 1\nvalue = [1, 0]", fillcolor="#e58139"] ;
696 -> 698 ;
699 [label="Age <= 54.5\ngini = 0.208\nsamples = 17\nvalue = [2, 15]", fillcolor="#53aae8"] ;
689 -> 699 ;
700 [label="Gender_1 <= 0.5\ngini = 0.444\nsamples = 6\nvalue = [2, 4]", fillcolor="#9ccef2"] ;
699 -> 700 ;
701 [label="gini = 0.0\nsamples = 3\nvalue = [0, 3]", fillcolor="#399de5"] ;
700 -> 701 ;
702 [label="Tumor_Type_0 <= 0.5\ngini = 0.444\nsamples = 3\nvalue = [2, 1]", fillcolor="#f2c09c"] ;
700 -> 702 ;
703 [label="gini = 0.0\nsamples = 1\nvalue = [0, 1]", fillcolor="#399de5"] ;
702 -> 703 ;
704 [label="gini = 0.0\nsamples = 2\nvalue = [2, 0]", fillcolor="#e58139"] ;
702 -> 704 ;
705 [label="gini = 0.0\nsamples = 11\nvalue = [0, 11]", fillcolor="#399de5"] ;
699 -> 705 ;
706 [label="Symptom_3_2 <= 0.5\ngini = 0.485\nsamples = 29\nvalue = [17, 12]", fillcolor="#f7dac5"] ;
688 -> 706 ;
707 [label="Stage_2 <= 0.5\ngini = 0.305\nsamples = 16\nvalue = [13, 3]", fillcolor="#eb9e67"] ;
706 -> 707 ;
708 [label="Tumor_Size <= 2.577\ngini = 0.49\nsamples = 7\nvalue = [4, 3]", fillcolor="#f8e0ce"] ;
707 -> 708 ;
709 [label="gini = 0.0\nsamples = 2\nvalue = [0, 2]", fillcolor="#399de5"] ;
708 -> 709 ;
710 [label="Survival_Rate <= 54.339\ngini = 0.32\nsamples = 5\nvalue = [4, 1]", fillcolor="#eca06a"] ;
708 -> 710 ;
711 [label="gini = 0.0\nsamples = 4\nvalue = [4, 0]", fillcolor="#e58139"] ;
710 -> 711 ;
712 [label="gini = 0.0\nsamples = 1\nvalue = [0, 1]", fillcolor="#399de5"] ;
710 -> 712 ;
713 [label="gini = 0.0\nsamples = 9\nvalue = [9, 0]", fillcolor="#e58139"] ;
707 -> 713 ;
714 [label="Tumor_Growth_Rate <= 0.706\ngini = 0.426\nsamples = 13\nvalue = [4, 9]", fillcolor="#91c9f1"] ;
706 -> 714 ;
715 [label="Survival_Rate <= 49.073\ngini = 0.298\nsamples = 11\nvalue = [2, 9]", fillcolor="#65b3eb"] ;
714 -> 715 ;
716 [label="Tumor_Type_0 <= 0.5\ngini = 0.444\nsamples = 3\nvalue = [2, 1]", fillcolor="#f2c09c"] ;
715 -> 716 ;
717 [label="gini = 0.0\nsamples = 2\nvalue = [2, 0]", fillcolor="#e58139"] ;
716 -> 717 ;
718 [label="gini = 0.0\nsamples = 1\nvalue = [0, 1]", fillcolor="#399de5"] ;
716 -> 718 ;
719 [label="gini = 0.0\nsamples = 8\nvalue = [0, 8]", fillcolor="#399de5"] ;
715 -> 719 ;
720 [label="gini = 0.0\nsamples = 2\nvalue = [2, 0]", fillcolor="#e58139"] ;
714 -> 720 ;
721 [label="Tumor_Size <= 2.935\ngini = 0.305\nsamples = 16\nvalue = [13, 3]", fillcolor="#eb9e67"] ;
667 -> 721 ;
722 [label="Histology_2 <= 0.5\ngini = 0.5\nsamples = 6\nvalue = [3, 3]", fillcolor="#ffffff"] ;
721 -> 722 ;
723 [label="gini = 0.0\nsamples = 3\nvalue = [0, 3]", fillcolor="#399de5"] ;
722 -> 723 ;
724 [label="gini = 0.0\nsamples = 3\nvalue = [3, 0]", fillcolor="#e58139"] ;
722 -> 724 ;
725 [label="gini = 0.0\nsamples = 10\nvalue = [10, 0]", fillcolor="#e58139"] ;
721 -> 725 ;
726 [label="Tumor_Growth_Rate <= 0.678\ngini = 0.48\nsamples = 50\nvalue = [20, 30]", fillcolor="#bddef6"] ;
662 -> 726 ;
727 [label="Age <= 59.5\ngini = 0.439\nsamples = 40\nvalue = [13, 27]", fillcolor="#98ccf2"] ;
726 -> 727 ;
728 [label="Symptom_3_2 <= 0.5\ngini = 0.494\nsamples = 18\nvalue = [10, 8]", fillcolor="#fae6d7"] ;
727 -> 728 ;
729 [label="Tumor_Size <= 8.771\ngini = 0.346\nsamples = 9\nvalue = [7, 2]", fillcolor="#eca572"] ;
728 -> 729 ;
730 [label="Age <= 52.5\ngini = 0.219\nsamples = 8\nvalue = [7, 1]", fillcolor="#e99355"] ;
729 -> 730 ;
731 [label="gini = 0.0\nsamples = 1\nvalue = [0, 1]", fillcolor="#399de5"] ;
730 -> 731 ;
732 [label="gini = 0.0\nsamples = 7\nvalue = [7, 0]", fillcolor="#e58139"] ;
730 -> 732 ;
733 [label="gini = 0.0\nsamples = 1\nvalue = [0, 1]", fillcolor="#399de5"] ;
729 -> 733 ;
734 [label="Surgery_Performed_0 <= 0.5\ngini = 0.444\nsamples = 9\nvalue = [3, 6]", fillcolor="#9ccef2"] ;
728 -> 734 ;
735 [label="Survival_Rate <= 62.906\ngini = 0.48\nsamples = 5\nvalue = [3, 2]", fillcolor="#f6d5bd"] ;
734 -> 735 ;
736 [label="gini = 0.0\nsamples = 3\nvalue = [3, 0]", fillcolor="#e58139"] ;
735 -> 736 ;
737 [label="gini = 0.0\nsamples = 2\nvalue = [0, 2]", fillcolor="#399de5"] ;
735 -> 737 ;
738 [label="gini = 0.0\nsamples = 4\nvalue = [0, 4]", fillcolor="#399de5"] ;
734 -> 738 ;
739 [label="Symptom_1_2 <= 0.5\ngini = 0.236\nsamples = 22\nvalue = [3, 19]", fillcolor="#58ace9"] ;
727 -> 739 ;
740 [label="gini = 0.0\nsamples = 11\nvalue = [0, 11]", fillcolor="#399de5"] ;
739 -> 740 ;
741 [label="Symptom_3_2 <= 0.5\ngini = 0.397\nsamples = 11\nvalue = [3, 8]", fillcolor="#83c2ef"] ;
739 -> 741 ;
742 [label="gini = 0.0\nsamples = 5\nvalue = [0, 5]", fillcolor="#399de5"] ;
741 -> 742 ;
743 [label="MRI_Result_1 <= 0.5\ngini = 0.5\nsamples = 6\nvalue = [3, 3]", fillcolor="#ffffff"] ;
741 -> 743 ;
744 [label="Age <= 63.0\ngini = 0.375\nsamples = 4\nvalue = [1, 3]", fillcolor="#7bbeee"] ;
743 -> 744 ;
745 [label="gini = 0.0\nsamples = 1\nvalue = [1, 0]", fillcolor="#e58139"] ;
744 -> 745 ;
746 [label="gini = 0.0\nsamples = 3\nvalue = [0, 3]", fillcolor="#399de5"] ;
744 -> 746 ;
747 [label="gini = 0.0\nsamples = 2\nvalue = [2, 0]", fillcolor="#e58139"] ;
743 -> 747 ;
748 [label="Location_1 <= 0.5\ngini = 0.42\nsamples = 10\nvalue = [7, 3]", fillcolor="#f0b78e"] ;
726 -> 748 ;
749 [label="gini = 0.0\nsamples = 4\nvalue = [4, 0]", fillcolor="#e58139"] ;
748 -> 749 ;
750 [label="Radiation_Treatment_1 <= 0.5\ngini = 0.5\nsamples = 6\nvalue = [3, 3]", fillcolor="#ffffff"] ;
748 -> 750 ;
751 [label="gini = 0.0\nsamples = 3\nvalue = [3, 0]", fillcolor="#e58139"] ;
750 -> 751 ;
752 [label="gini = 0.0\nsamples = 3\nvalue = [0, 3]", fillcolor="#399de5"] ;
750 -> 752 ;
753 [label="Tumor_Size <= 6.389\ngini = 0.485\nsamples = 179\nvalue = [74, 105]", fillcolor="#c5e2f7"] ;
661 -> 753 ;
754 [label="Tumor_Growth_Rate <= 0.189\ngini = 0.5\nsamples = 117\nvalue = [57.0, 60.0]", fillcolor="#f5fafe"] ;
753 -> 754 ;
755 [label="Location_0 <= 0.5\ngini = 0.375\nsamples = 16\nvalue = [12, 4]", fillcolor="#eeab7b"] ;
754 -> 755 ;
756 [label="Symptom_1_2 <= 0.5\ngini = 0.26\nsamples = 13\nvalue = [11, 2]", fillcolor="#ea985d"] ;
755 -> 756 ;
757 [label="gini = 0.0\nsamples = 7\nvalue = [7, 0]", fillcolor="#e58139"] ;
756 -> 757 ;
758 [label="Gender_0 <= 0.5\ngini = 0.444\nsamples = 6\nvalue = [4, 2]", fillcolor="#f2c09c"] ;
756 -> 758 ;
759 [label="gini = 0.0\nsamples = 2\nvalue = [0, 2]", fillcolor="#399de5"] ;
758 -> 759 ;
760 [label="gini = 0.0\nsamples = 4\nvalue = [4, 0]", fillcolor="#e58139"] ;
758 -> 760 ;
761 [label="MRI_Result_0 <= 0.5\ngini = 0.444\nsamples = 3\nvalue = [1, 2]", fillcolor="#9ccef2"] ;
755 -> 761 ;
762 [label="gini = 0.0\nsamples = 1\nvalue = [1, 0]", fillcolor="#e58139"] ;
761 -> 762 ;
763 [label="gini = 0.0\nsamples = 2\nvalue = [0, 2]", fillcolor="#399de5"] ;
761 -> 763 ;
764 [label="Tumor_Growth_Rate <= 0.328\ngini = 0.494\nsamples = 101\nvalue = [45.0, 56.0]", fillcolor="#d8ecfa"] ;
754 -> 764 ;
765 [label="Histology_2 <= 0.5\ngini = 0.346\nsamples = 18\nvalue = [4, 14]", fillcolor="#72b9ec"] ;
764 -> 765 ;
766 [label="gini = 0.0\nsamples = 11\nvalue = [0, 11]", fillcolor="#399de5"] ;
765 -> 766 ;
767 [label="Location_2 <= 0.5\ngini = 0.49\nsamples = 7\nvalue = [4, 3]", fillcolor="#f8e0ce"] ;
765 -> 767 ;
768 [label="gini = 0.0\nsamples = 3\nvalue = [3, 0]", fillcolor="#e58139"] ;
767 -> 768 ;
769 [label="Symptom_1_2 <= 0.5\ngini = 0.375\nsamples = 4\nvalue = [1, 3]", fillcolor="#7bbeee"] ;
767 -> 769 ;
770 [label="gini = 0.0\nsamples = 3\nvalue = [0, 3]", fillcolor="#399de5"] ;
769 -> 770 ;
771 [label="gini = 0.0\nsamples = 1\nvalue = [1, 0]", fillcolor="#e58139"] ;
769 -> 771 ;
772 [label="Tumor_Growth_Rate <= 0.563\ngini = 0.5\nsamples = 83\nvalue = [41, 42]", fillcolor="#fafdfe"] ;
764 -> 772 ;
773 [label="Stage_0 <= 0.5\ngini = 0.485\nsamples = 46\nvalue = [27.0, 19.0]", fillcolor="#f7dac4"] ;
772 -> 773 ;
774 [label="Gender_1 <= 0.5\ngini = 0.444\nsamples = 36\nvalue = [24, 12]", fillcolor="#f2c09c"] ;
773 -> 774 ;
775 [label="Location_2 <= 0.5\ngini = 0.5\nsamples = 16\nvalue = [8, 8]", fillcolor="#ffffff"] ;
774 -> 775 ;
776 [label="Age <= 59.0\ngini = 0.42\nsamples = 10\nvalue = [3, 7]", fillcolor="#8ec7f0"] ;
775 -> 776 ;
777 [label="gini = 0.0\nsamples = 5\nvalue = [0, 5]", fillcolor="#399de5"] ;
776 -> 777 ;
778 [label="Symptom_2_2 <= 0.5\ngini = 0.48\nsamples = 5\nvalue = [3, 2]", fillcolor="#f6d5bd"] ;
776 -> 778 ;
779 [label="gini = 0.0\nsamples = 2\nvalue = [2, 0]", fillcolor="#e58139"] ;
778 -> 779 ;
780 [label="Histology_1 <= 0.5\ngini = 0.444\nsamples = 3\nvalue = [1, 2]", fillcolor="#9ccef2"] ;
778 -> 780 ;
781 [label="gini = 0.0\nsamples = 1\nvalue = [1, 0]", fillcolor="#e58139"] ;
780 -> 781 ;
782 [label="gini = 0.0\nsamples = 2\nvalue = [0, 2]", fillcolor="#399de5"] ;
780 -> 782 ;
783 [label="Survival_Rate <= 67.213\ngini = 0.278\nsamples = 6\nvalue = [5, 1]", fillcolor="#ea9a61"] ;
775 -> 783 ;
784 [label="gini = 0.0\nsamples = 5\nvalue = [5, 0]", fillcolor="#e58139"] ;
783 -> 784 ;
785 [label="gini = 0.0\nsamples = 1\nvalue = [0, 1]", fillcolor="#399de5"] ;
783 -> 785 ;
786 [label="Symptom_1_0 <= 0.5\ngini = 0.32\nsamples = 20\nvalue = [16, 4]", fillcolor="#eca06a"] ;
774 -> 786 ;
787 [label="Symptom_2_2 <= 0.5\ngini = 0.142\nsamples = 13\nvalue = [12, 1]", fillcolor="#e78c49"] ;
786 -> 787 ;
788 [label="Family_History_1 <= 0.5\ngini = 0.444\nsamples = 3\nvalue = [2, 1]", fillcolor="#f2c09c"] ;
787 -> 788 ;
789 [label="gini = 0.0\nsamples = 1\nvalue = [0, 1]", fillcolor="#399de5"] ;
788 -> 789 ;
790 [label="gini = 0.0\nsamples = 2\nvalue = [2, 0]", fillcolor="#e58139"] ;
788 -> 790 ;
791 [label="gini = 0.0\nsamples = 10\nvalue = [10, 0]", fillcolor="#e58139"] ;
787 -> 791 ;
792 [label="Survival_Rate <= 56.724\ngini = 0.49\nsamples = 7\nvalue = [4, 3]", fillcolor="#f8e0ce"] ;
786 -> 792 ;
793 [label="gini = 0.0\nsamples = 4\nvalue = [4, 0]", fillcolor="#e58139"] ;
792 -> 793 ;
794 [label="gini = 0.0\nsamples = 3\nvalue = [0, 3]", fillcolor="#399de5"] ;
792 -> 794 ;
795 [label="Tumor_Size <= 5.522\ngini = 0.42\nsamples = 10\nvalue = [3, 7]", fillcolor="#8ec7f0"] ;
773 -> 795 ;
796 [label="Survival_Rate <= 41.777\ngini = 0.219\nsamples = 8\nvalue = [1, 7]", fillcolor="#55abe9"] ;
795 -> 796 ;
797 [label="gini = 0.0\nsamples = 1\nvalue = [1, 0]", fillcolor="#e58139"] ;
796 -> 797 ;
798 [label="gini = 0.0\nsamples = 7\nvalue = [0, 7]", fillcolor="#399de5"] ;
796 -> 798 ;
799 [label="gini = 0.0\nsamples = 2\nvalue = [2, 0]", fillcolor="#e58139"] ;
795 -> 799 ;
800 [label="Tumor_Growth_Rate <= 0.58\ngini = 0.47\nsamples = 37\nvalue = [14, 23]", fillcolor="#b2d9f5"] ;
772 -> 800 ;
801 [label="gini = 0.0\nsamples = 6\nvalue = [0, 6]", fillcolor="#399de5"] ;
800 -> 801 ;
802 [label="Tumor_Size <= 5.497\ngini = 0.495\nsamples = 31\nvalue = [14, 17]", fillcolor="#dceefa"] ;
800 -> 802 ;
803 [label="Tumor_Growth_Rate <= 0.641\ngini = 0.491\nsamples = 23\nvalue = [13.0, 10.0]", fillcolor="#f9e2d1"] ;
802 -> 803 ;
804 [label="gini = 0.0\nsamples = 4\nvalue = [4, 0]", fillcolor="#e58139"] ;
803 -> 804 ;
805 [label="Symptom_2_1 <= 0.5\ngini = 0.499\nsamples = 19\nvalue = [9, 10]", fillcolor="#ebf5fc"] ;
803 -> 805 ;
806 [label="Tumor_Size <= 3.992\ngini = 0.408\nsamples = 7\nvalue = [5, 2]", fillcolor="#efb388"] ;
805 -> 806 ;
807 [label="gini = 0.0\nsamples = 5\nvalue = [5, 0]", fillcolor="#e58139"] ;
806 -> 807 ;
808 [label="gini = 0.0\nsamples = 2\nvalue = [0, 2]", fillcolor="#399de5"] ;
806 -> 808 ;
809 [label="Tumor_Size <= 4.846\ngini = 0.444\nsamples = 12\nvalue = [4, 8]", fillcolor="#9ccef2"] ;
805 -> 809 ;
810 [label="Symptom_3_2 <= 0.5\ngini = 0.32\nsamples = 10\nvalue = [2, 8]", fillcolor="#6ab6ec"] ;
809 -> 810 ;
811 [label="Tumor_Growth_Rate <= 0.72\ngini = 0.5\nsamples = 4\nvalue = [2, 2]", fillcolor="#ffffff"] ;
810 -> 811 ;
812 [label="gini = 0.0\nsamples = 2\nvalue = [2, 0]", fillcolor="#e58139"] ;
811 -> 812 ;
813 [label="gini = 0.0\nsamples = 2\nvalue = [0, 2]", fillcolor="#399de5"] ;
811 -> 813 ;
814 [label="gini = 0.0\nsamples = 6\nvalue = [0, 6]", fillcolor="#399de5"] ;
810 -> 814 ;
815 [label="gini = 0.0\nsamples = 2\nvalue = [2, 0]", fillcolor="#e58139"] ;
809 -> 815 ;
816 [label="Tumor_Growth_Rate <= 0.588\ngini = 0.219\nsamples = 8\nvalue = [1, 7]", fillcolor="#55abe9"] ;
802 -> 816 ;
817 [label="gini = 0.0\nsamples = 1\nvalue = [1, 0]", fillcolor="#e58139"] ;
816 -> 817 ;
818 [label="gini = 0.0\nsamples = 7\nvalue = [0, 7]", fillcolor="#399de5"] ;
816 -> 818 ;
819 [label="Histology_0 <= 0.5\ngini = 0.398\nsamples = 62\nvalue = [17, 45]", fillcolor="#84c2ef"] ;
753 -> 819 ;
820 [label="Symptom_3_2 <= 0.5\ngini = 0.449\nsamples = 50\nvalue = [17, 33]", fillcolor="#9fcff2"] ;
819 -> 820 ;
821 [label="Symptom_1_2 <= 0.5\ngini = 0.32\nsamples = 25\nvalue = [5, 20]", fillcolor="#6ab6ec"] ;
820 -> 821 ;
822 [label="Tumor_Size <= 7.749\ngini = 0.494\nsamples = 9\nvalue = [4, 5]", fillcolor="#d7ebfa"] ;
821 -> 822 ;
823 [label="gini = 0.0\nsamples = 4\nvalue = [0, 4]", fillcolor="#399de5"] ;
822 -> 823 ;
824 [label="Surgery_Performed_0 <= 0.5\ngini = 0.32\nsamples = 5\nvalue = [4, 1]", fillcolor="#eca06a"] ;
822 -> 824 ;
825 [label="gini = 0.0\nsamples = 1\nvalue = [0, 1]", fillcolor="#399de5"] ;
824 -> 825 ;
826 [label="gini = 0.0\nsamples = 4\nvalue = [4, 0]", fillcolor="#e58139"] ;
824 -> 826 ;
827 [label="Tumor_Size <= 9.687\ngini = 0.117\nsamples = 16\nvalue = [1, 15]", fillcolor="#46a4e7"] ;
821 -> 827 ;
828 [label="gini = 0.0\nsamples = 15\nvalue = [0, 15]", fillcolor="#399de5"] ;
827 -> 828 ;
829 [label="gini = 0.0\nsamples = 1\nvalue = [1, 0]", fillcolor="#e58139"] ;
827 -> 829 ;
830 [label="Survival_Rate <= 58.749\ngini = 0.499\nsamples = 25\nvalue = [12, 13]", fillcolor="#f0f7fd"] ;
820 -> 830 ;
831 [label="Survival_Rate <= 52.16\ngini = 0.444\nsamples = 18\nvalue = [6, 12]", fillcolor="#9ccef2"] ;
830 -> 831 ;
832 [label="Symptom_1_1 <= 0.5\ngini = 0.5\nsamples = 10\nvalue = [5, 5]", fillcolor="#ffffff"] ;
831 -> 832 ;
833 [label="gini = 0.0\nsamples = 4\nvalue = [4, 0]", fillcolor="#e58139"] ;
832 -> 833 ;
834 [label="Location_1 <= 0.5\ngini = 0.278\nsamples = 6\nvalue = [1, 5]", fillcolor="#61b1ea"] ;
832 -> 834 ;
835 [label="gini = 0.0\nsamples = 1\nvalue = [1, 0]", fillcolor="#e58139"] ;
834 -> 835 ;
836 [label="gini = 0.0\nsamples = 5\nvalue = [0, 5]", fillcolor="#399de5"] ;
834 -> 836 ;
837 [label="Tumor_Growth_Rate <= 0.58\ngini = 0.219\nsamples = 8\nvalue = [1, 7]", fillcolor="#55abe9"] ;
831 -> 837 ;
838 [label="gini = 0.0\nsamples = 6\nvalue = [0, 6]", fillcolor="#399de5"] ;
837 -> 838 ;
839 [label="Symptom_3_1 <= 0.5\ngini = 0.5\nsamples = 2\nvalue = [1, 1]", fillcolor="#ffffff"] ;
837 -> 839 ;
840 [label="gini = 0.0\nsamples = 1\nvalue = [0, 1]", fillcolor="#399de5"] ;
839 -> 840 ;
841 [label="gini = 0.0\nsamples = 1\nvalue = [1, 0]", fillcolor="#e58139"] ;
839 -> 841 ;
842 [label="Tumor_Size <= 9.848\ngini = 0.245\nsamples = 7\nvalue = [6, 1]", fillcolor="#e9965a"] ;
830 -> 842 ;
843 [label="gini = 0.0\nsamples = 6\nvalue = [6, 0]", fillcolor="#e58139"] ;
842 -> 843 ;
844 [label="gini = 0.0\nsamples = 1\nvalue = [0, 1]", fillcolor="#399de5"] ;
842 -> 844 ;
845 [label="gini = 0.0\nsamples = 12\nvalue = [0, 12]", fillcolor="#399de5"] ;
819 -> 845 ;
846 [label="Survival_Rate <= 71.485\ngini = 0.41\nsamples = 80\nvalue = [23, 57]", fillcolor="#89c5ef"] ;
660 -> 846 ;
847 [label="Tumor_Growth_Rate <= 0.123\ngini = 0.18\nsamples = 30\nvalue = [3, 27]", fillcolor="#4fa8e8"] ;
846 -> 847 ;
848 [label="gini = 0.0\nsamples = 1\nvalue = [1, 0]", fillcolor="#e58139"] ;
847 -> 848 ;
849 [label="Tumor_Size <= 0.72\ngini = 0.128\nsamples = 29\nvalue = [2, 27]", fillcolor="#48a4e7"] ;
847 -> 849 ;
850 [label="gini = 0.0\nsamples = 1\nvalue = [1, 0]", fillcolor="#e58139"] ;
849 -> 850 ;
851 [label="Tumor_Size <= 8.225\ngini = 0.069\nsamples = 28\nvalue = [1, 27]", fillcolor="#40a1e6"] ;
849 -> 851 ;
852 [label="gini = 0.0\nsamples = 25\nvalue = [0, 25]", fillcolor="#399de5"] ;
851 -> 852 ;
853 [label="Age <= 54.0\ngini = 0.444\nsamples = 3\nvalue = [1, 2]", fillcolor="#9ccef2"] ;
851 -> 853 ;
854 [label="gini = 0.0\nsamples = 1\nvalue = [1, 0]", fillcolor="#e58139"] ;
853 -> 854 ;
855 [label="gini = 0.0\nsamples = 2\nvalue = [0, 2]", fillcolor="#399de5"] ;
853 -> 855 ;
856 [label="Tumor_Size <= 8.851\ngini = 0.48\nsamples = 50\nvalue = [20, 30]", fillcolor="#bddef6"] ;
846 -> 856 ;
857 [label="MRI_Result_1 <= 0.5\ngini = 0.454\nsamples = 46\nvalue = [16, 30]", fillcolor="#a3d1f3"] ;
856 -> 857 ;
858 [label="Survival_Rate <= 71.616\ngini = 0.308\nsamples = 21\nvalue = [4, 17]", fillcolor="#68b4eb"] ;
857 -> 858 ;
859 [label="gini = 0.0\nsamples = 1\nvalue = [1, 0]", fillcolor="#e58139"] ;
858 -> 859 ;
860 [label="Tumor_Growth_Rate <= 0.184\ngini = 0.255\nsamples = 20\nvalue = [3, 17]", fillcolor="#5caeea"] ;
858 -> 860 ;
861 [label="gini = 0.0\nsamples = 1\nvalue = [1, 0]", fillcolor="#e58139"] ;
860 -> 861 ;
862 [label="Stage_1 <= 0.5\ngini = 0.188\nsamples = 19\nvalue = [2, 17]", fillcolor="#50a9e8"] ;
860 -> 862 ;
863 [label="gini = 0.0\nsamples = 10\nvalue = [0, 10]", fillcolor="#399de5"] ;
862 -> 863 ;
864 [label="Survival_Rate <= 73.449\ngini = 0.346\nsamples = 9\nvalue = [2, 7]", fillcolor="#72b9ec"] ;
862 -> 864 ;
865 [label="Surgery_Performed_0 <= 0.5\ngini = 0.444\nsamples = 3\nvalue = [2, 1]", fillcolor="#f2c09c"] ;
864 -> 865 ;
866 [label="gini = 0.0\nsamples = 2\nvalue = [2, 0]", fillcolor="#e58139"] ;
865 -> 866 ;
867 [label="gini = 0.0\nsamples = 1\nvalue = [0, 1]", fillcolor="#399de5"] ;
865 -> 867 ;
868 [label="gini = 0.0\nsamples = 6\nvalue = [0, 6]", fillcolor="#399de5"] ;
864 -> 868 ;
869 [label="Location_0 <= 0.5\ngini = 0.499\nsamples = 25\nvalue = [12, 13]", fillcolor="#f0f7fd"] ;
857 -> 869 ;
870 [label="Gender_1 <= 0.5\ngini = 0.469\nsamples = 16\nvalue = [10, 6]", fillcolor="#f5cdb0"] ;
869 -> 870 ;
871 [label="Tumor_Size <= 0.92\ngini = 0.219\nsamples = 8\nvalue = [7, 1]", fillcolor="#e99355"] ;
870 -> 871 ;
872 [label="gini = 0.0\nsamples = 1\nvalue = [0, 1]", fillcolor="#399de5"] ;
871 -> 872 ;
873 [label="gini = 0.0\nsamples = 7\nvalue = [7, 0]", fillcolor="#e58139"] ;
871 -> 873 ;
874 [label="Age <= 62.0\ngini = 0.469\nsamples = 8\nvalue = [3, 5]", fillcolor="#b0d8f5"] ;
870 -> 874 ;
875 [label="Histology_2 <= 0.5\ngini = 0.375\nsamples = 4\nvalue = [3, 1]", fillcolor="#eeab7b"] ;
874 -> 875 ;
876 [label="gini = 0.0\nsamples = 1\nvalue = [0, 1]", fillcolor="#399de5"] ;
875 -> 876 ;
877 [label="gini = 0.0\nsamples = 3\nvalue = [3, 0]", fillcolor="#e58139"] ;
875 -> 877 ;
878 [label="gini = 0.0\nsamples = 4\nvalue = [0, 4]", fillcolor="#399de5"] ;
874 -> 878 ;
879 [label="Symptom_3_1 <= 0.5\ngini = 0.346\nsamples = 9\nvalue = [2, 7]", fillcolor="#72b9ec"] ;
869 -> 879 ;
880 [label="gini = 0.0\nsamples = 5\nvalue = [0, 5]", fillcolor="#399de5"] ;
879 -> 880 ;
881 [label="Tumor_Type_0 <= 0.5\ngini = 0.5\nsamples = 4\nvalue = [2, 2]", fillcolor="#ffffff"] ;
879 -> 881 ;
882 [label="gini = 0.0\nsamples = 2\nvalue = [0, 2]", fillcolor="#399de5"] ;
881 -> 882 ;
883 [label="gini = 0.0\nsamples = 2\nvalue = [2, 0]", fillcolor="#e58139"] ;
881 -> 883 ;
884 [label="gini = 0.0\nsamples = 4\nvalue = [4, 0]", fillcolor="#e58139"] ;
856 -> 884 ;
885 [label="Tumor_Growth_Rate <= 0.179\ngini = 0.487\nsamples = 322\nvalue = [135, 187]", fillcolor="#c8e4f8"] ;
365 -> 885 ;
886 [label="Age <= 41.5\ngini = 0.478\nsamples = 33\nvalue = [20, 13]", fillcolor="#f6d3ba"] ;
885 -> 886 ;
887 [label="Tumor_Growth_Rate <= 0.109\ngini = 0.278\nsamples = 6\nvalue = [1, 5]", fillcolor="#61b1ea"] ;
886 -> 887 ;
888 [label="gini = 0.0\nsamples = 1\nvalue = [1, 0]", fillcolor="#e58139"] ;
887 -> 888 ;
889 [label="gini = 0.0\nsamples = 5\nvalue = [0, 5]", fillcolor="#399de5"] ;
887 -> 889 ;
890 [label="Chemotherapy_0 <= 0.5\ngini = 0.417\nsamples = 27\nvalue = [19, 8]", fillcolor="#f0b68c"] ;
886 -> 890 ;
891 [label="Age <= 56.5\ngini = 0.498\nsamples = 15\nvalue = [7, 8]", fillcolor="#e6f3fc"] ;
890 -> 891 ;
892 [label="Symptom_1_1 <= 0.5\ngini = 0.375\nsamples = 8\nvalue = [6, 2]", fillcolor="#eeab7b"] ;
891 -> 892 ;
893 [label="gini = 0.0\nsamples = 5\nvalue = [5, 0]", fillcolor="#e58139"] ;
892 -> 893 ;
894 [label="Gender_0 <= 0.5\ngini = 0.444\nsamples = 3\nvalue = [1, 2]", fillcolor="#9ccef2"] ;
892 -> 894 ;
895 [label="gini = 0.0\nsamples = 1\nvalue = [1, 0]", fillcolor="#e58139"] ;
894 -> 895 ;
896 [label="gini = 0.0\nsamples = 2\nvalue = [0, 2]", fillcolor="#399de5"] ;
894 -> 896 ;
897 [label="Tumor_Growth_Rate <= 0.113\ngini = 0.245\nsamples = 7\nvalue = [1, 6]", fillcolor="#5aade9"] ;
891 -> 897 ;
898 [label="gini = 0.0\nsamples = 1\nvalue = [1, 0]", fillcolor="#e58139"] ;
897 -> 898 ;
899 [label="gini = 0.0\nsamples = 6\nvalue = [0, 6]", fillcolor="#399de5"] ;
897 -> 899 ;
900 [label="gini = 0.0\nsamples = 12\nvalue = [12, 0]", fillcolor="#e58139"] ;
890 -> 900 ;
901 [label="Tumor_Size <= 9.381\ngini = 0.479\nsamples = 289\nvalue = [115, 174]", fillcolor="#bcdef6"] ;
885 -> 901 ;
902 [label="Tumor_Size <= 0.606\ngini = 0.474\nsamples = 280\nvalue = [108, 172]", fillcolor="#b5dbf5"] ;
901 -> 902 ;
903 [label="gini = 0.0\nsamples = 3\nvalue = [3, 0]", fillcolor="#e58139"] ;
902 -> 903 ;
904 [label="Tumor_Size <= 8.696\ngini = 0.471\nsamples = 277\nvalue = [105.0, 172.0]", fillcolor="#b2d9f5"] ;
902 -> 904 ;
905 [label="Tumor_Size <= 8.64\ngini = 0.477\nsamples = 259\nvalue = [102, 157]", fillcolor="#baddf6"] ;
904 -> 905 ;
906 [label="Survival_Rate <= 74.498\ngini = 0.474\nsamples = 256\nvalue = [99, 157]", fillcolor="#b6dbf5"] ;
905 -> 906 ;
907 [label="Survival_Rate <= 52.187\ngini = 0.47\nsamples = 249\nvalue = [94, 155]", fillcolor="#b1d8f5"] ;
906 -> 907 ;
908 [label="Survival_Rate <= 51.072\ngini = 0.497\nsamples = 82\nvalue = [38, 44]", fillcolor="#e4f2fb"] ;
907 -> 908 ;
909 [label="Stage_0 <= 0.5\ngini = 0.489\nsamples = 75\nvalue = [32, 43]", fillcolor="#cce6f8"] ;
908 -> 909 ;
910 [label="Location_2 <= 0.5\ngini = 0.467\nsamples = 62\nvalue = [23, 39]", fillcolor="#aed7f4"] ;
909 -> 910 ;
911 [label="Symptom_1_0 <= 0.5\ngini = 0.382\nsamples = 35\nvalue = [9, 26]", fillcolor="#7ebfee"] ;
910 -> 911 ;
912 [label="Tumor_Growth_Rate <= 0.324\ngini = 0.293\nsamples = 28\nvalue = [5, 23]", fillcolor="#64b2eb"] ;
911 -> 912 ;
913 [label="Stage_2 <= 0.5\ngini = 0.5\nsamples = 8\nvalue = [4, 4]", fillcolor="#ffffff"] ;
912 -> 913 ;
914 [label="gini = 0.0\nsamples = 3\nvalue = [0, 3]", fillcolor="#399de5"] ;
913 -> 914 ;
915 [label="Survival_Rate <= 48.532\ngini = 0.32\nsamples = 5\nvalue = [4, 1]", fillcolor="#eca06a"] ;
913 -> 915 ;
916 [label="gini = 0.0\nsamples = 4\nvalue = [4, 0]", fillcolor="#e58139"] ;
915 -> 916 ;
917 [label="gini = 0.0\nsamples = 1\nvalue = [0, 1]", fillcolor="#399de5"] ;
915 -> 917 ;
918 [label="Age <= 41.5\ngini = 0.095\nsamples = 20\nvalue = [1, 19]", fillcolor="#43a2e6"] ;
912 -> 918 ;
919 [label="Surgery_Performed_1 <= 0.5\ngini = 0.278\nsamples = 6\nvalue = [1, 5]", fillcolor="#61b1ea"] ;
918 -> 919 ;
920 [label="gini = 0.0\nsamples = 5\nvalue = [0, 5]", fillcolor="#399de5"] ;
919 -> 920 ;
921 [label="gini = 0.0\nsamples = 1\nvalue = [1, 0]", fillcolor="#e58139"] ;
919 -> 921 ;
922 [label="gini = 0.0\nsamples = 14\nvalue = [0, 14]", fillcolor="#399de5"] ;
918 -> 922 ;
923 [label="Radiation_Treatment_1 <= 0.5\ngini = 0.49\nsamples = 7\nvalue = [4, 3]", fillcolor="#f8e0ce"] ;
911 -> 923 ;
924 [label="gini = 0.0\nsamples = 4\nvalue = [4, 0]", fillcolor="#e58139"] ;
923 -> 924 ;
925 [label="gini = 0.0\nsamples = 3\nvalue = [0, 3]", fillcolor="#399de5"] ;
923 -> 925 ;
926 [label="Histology_1 <= 0.5\ngini = 0.499\nsamples = 27\nvalue = [14, 13]", fillcolor="#fdf6f1"] ;
910 -> 926 ;
927 [label="Tumor_Size <= 3.225\ngini = 0.415\nsamples = 17\nvalue = [12, 5]", fillcolor="#f0b58b"] ;
926 -> 927 ;
928 [label="Survival_Rate <= 45.79\ngini = 0.48\nsamples = 5\nvalue = [2, 3]", fillcolor="#bddef6"] ;
927 -> 928 ;
929 [label="gini = 0.0\nsamples = 3\nvalue = [0, 3]", fillcolor="#399de5"] ;
928 -> 929 ;
930 [label="gini = 0.0\nsamples = 2\nvalue = [2, 0]", fillcolor="#e58139"] ;
928 -> 930 ;
931 [label="Symptom_1_0 <= 0.5\ngini = 0.278\nsamples = 12\nvalue = [10, 2]", fillcolor="#ea9a61"] ;
927 -> 931 ;
932 [label="Age <= 62.5\ngini = 0.165\nsamples = 11\nvalue = [10, 1]", fillcolor="#e88e4d"] ;
931 -> 932 ;
933 [label="gini = 0.0\nsamples = 10\nvalue = [10, 0]", fillcolor="#e58139"] ;
932 -> 933 ;
934 [label="gini = 0.0\nsamples = 1\nvalue = [0, 1]", fillcolor="#399de5"] ;
932 -> 934 ;
935 [label="gini = 0.0\nsamples = 1\nvalue = [0, 1]", fillcolor="#399de5"] ;
931 -> 935 ;
936 [label="Location_1 <= 0.5\ngini = 0.32\nsamples = 10\nvalue = [2, 8]", fillcolor="#6ab6ec"] ;
926 -> 936 ;
937 [label="gini = 0.0\nsamples = 7\nvalue = [0, 7]", fillcolor="#399de5"] ;
936 -> 937 ;
938 [label="Surgery_Performed_0 <= 0.5\ngini = 0.444\nsamples = 3\nvalue = [2, 1]", fillcolor="#f2c09c"] ;
936 -> 938 ;
939 [label="gini = 0.0\nsamples = 1\nvalue = [0, 1]", fillcolor="#399de5"] ;
938 -> 939 ;
940 [label="gini = 0.0\nsamples = 2\nvalue = [2, 0]", fillcolor="#e58139"] ;
938 -> 940 ;
941 [label="Symptom_1_2 <= 0.5\ngini = 0.426\nsamples = 13\nvalue = [9, 4]", fillcolor="#f1b991"] ;
909 -> 941 ;
942 [label="Tumor_Growth_Rate <= 0.591\ngini = 0.444\nsamples = 6\nvalue = [2, 4]", fillcolor="#9ccef2"] ;
941 -> 942 ;
943 [label="gini = 0.0\nsamples = 4\nvalue = [0, 4]", fillcolor="#399de5"] ;
942 -> 943 ;
944 [label="gini = 0.0\nsamples = 2\nvalue = [2, 0]", fillcolor="#e58139"] ;
942 -> 944 ;
945 [label="gini = 0.0\nsamples = 7\nvalue = [7, 0]", fillcolor="#e58139"] ;
941 -> 945 ;
946 [label="Tumor_Growth_Rate <= 0.651\ngini = 0.245\nsamples = 7\nvalue = [6, 1]", fillcolor="#e9965a"] ;
908 -> 946 ;
947 [label="gini = 0.0\nsamples = 6\nvalue = [6, 0]", fillcolor="#e58139"] ;
946 -> 947 ;
948 [label="gini = 0.0\nsamples = 1\nvalue = [0, 1]", fillcolor="#399de5"] ;
946 -> 948 ;
949 [label="Gender_1 <= 0.5\ngini = 0.446\nsamples = 167\nvalue = [56, 111]", fillcolor="#9dcef2"] ;
907 -> 949 ;
950 [label="Age <= 42.0\ngini = 0.393\nsamples = 82\nvalue = [22, 60]", fillcolor="#82c1ef"] ;
949 -> 950 ;
951 [label="Age <= 31.5\ngini = 0.153\nsamples = 24\nvalue = [2, 22]", fillcolor="#4ba6e7"] ;
950 -> 951 ;
952 [label="Histology_2 <= 0.5\ngini = 0.5\nsamples = 2\nvalue = [1, 1]", fillcolor="#ffffff"] ;
951 -> 952 ;
953 [label="gini = 0.0\nsamples = 1\nvalue = [1, 0]", fillcolor="#e58139"] ;
952 -> 953 ;
954 [label="gini = 0.0\nsamples = 1\nvalue = [0, 1]", fillcolor="#399de5"] ;
952 -> 954 ;
955 [label="Tumor_Size <= 1.907\ngini = 0.087\nsamples = 22\nvalue = [1, 21]", fillcolor="#42a2e6"] ;
951 -> 955 ;
956 [label="Tumor_Size <= 1.558\ngini = 0.375\nsamples = 4\nvalue = [1, 3]", fillcolor="#7bbeee"] ;
955 -> 956 ;
957 [label="gini = 0.0\nsamples = 3\nvalue = [0, 3]", fillcolor="#399de5"] ;
956 -> 957 ;
958 [label="gini = 0.0\nsamples = 1\nvalue = [1, 0]", fillcolor="#e58139"] ;
956 -> 958 ;
959 [label="gini = 0.0\nsamples = 18\nvalue = [0, 18]", fillcolor="#399de5"] ;
955 -> 959 ;
960 [label="Location_0 <= 0.5\ngini = 0.452\nsamples = 58\nvalue = [20, 38]", fillcolor="#a1d1f3"] ;
950 -> 960 ;
961 [label="Location_1 <= 0.5\ngini = 0.473\nsamples = 52\nvalue = [20, 32]", fillcolor="#b5daf5"] ;
960 -> 961 ;
962 [label="Tumor_Size <= 2.092\ngini = 0.469\nsamples = 16\nvalue = [10, 6]", fillcolor="#f5cdb0"] ;
961 -> 962 ;
963 [label="gini = 0.0\nsamples = 3\nvalue = [0, 3]", fillcolor="#399de5"] ;
962 -> 963 ;
964 [label="Survival_Rate <= 62.144\ngini = 0.355\nsamples = 13\nvalue = [10, 3]", fillcolor="#eda774"] ;
962 -> 964 ;
965 [label="Survival_Rate <= 59.154\ngini = 0.5\nsamples = 6\nvalue = [3, 3]", fillcolor="#ffffff"] ;
964 -> 965 ;
966 [label="gini = 0.0\nsamples = 3\nvalue = [3, 0]", fillcolor="#e58139"] ;
965 -> 966 ;
967 [label="gini = 0.0\nsamples = 3\nvalue = [0, 3]", fillcolor="#399de5"] ;
965 -> 967 ;
968 [label="gini = 0.0\nsamples = 7\nvalue = [7, 0]", fillcolor="#e58139"] ;
964 -> 968 ;
969 [label="Tumor_Growth_Rate <= 0.248\ngini = 0.401\nsamples = 36\nvalue = [10, 26]", fillcolor="#85c3ef"] ;
961 -> 969 ;
970 [label="Tumor_Growth_Rate <= 0.203\ngini = 0.375\nsamples = 4\nvalue = [3, 1]", fillcolor="#eeab7b"] ;
969 -> 970 ;
971 [label="gini = 0.0\nsamples = 1\nvalue = [0, 1]", fillcolor="#399de5"] ;
970 -> 971 ;
972 [label="gini = 0.0\nsamples = 3\nvalue = [3, 0]", fillcolor="#e58139"] ;
970 -> 972 ;
